{"learner":{"attributes":{"scikit_learn":"{\"_estimator_type\": \"classifier\"}"},"feature_names":["MonthlyRevenue","MonthlyMinutes","TotalRecurringCharge","DirectorAssistedCalls","OverageMinutes","RoamingCalls","PercChangeMinutes","PercChangeRevenues","DroppedCalls","BlockedCalls","UnansweredCalls","CustomerCareCalls","ThreewayCalls","ReceivedCalls","OutboundCalls","InboundCalls","PeakCallsInOut","OffPeakCallsInOut","DroppedBlockedCalls","CallForwardingCalls","CallWaitingCalls","MonthsInService","UniqueSubs","ActiveSubs","Handsets","HandsetModels","CurrentEquipmentDays","AgeHH1","AgeHH2","ChildrenInHH","HandsetRefurbished","HandsetWebCapable","TruckOwner","RVOwner","BuysViaMailOrder","RespondsToMailOffers","OptOutMailings","NonUSTravel","OwnsComputer","HasCreditCard","RetentionCalls","RetentionOffersAccepted","NewCellphoneUser","NotNewCellphoneUser","ReferralsMadeBySubscriber","IncomeGroup","OwnsMotorcycle","AdjustmentsToCreditRating","HandsetPrice","MadeCallToRetentionTeam","CreditRating","HomeownershipKnown","MaritalStatus_No","MaritalStatus_Unknown","MaritalStatus_Yes","HandsetPriceKnown","AgeHH1Known","AgeHH2Known","MissingBillingInfo","PrizmCode_Other","PrizmCode_Rural","PrizmCode_Suburban","PrizmCode_Town","Occupation_Clerical","Occupation_Crafts","Occupation_Homemaker","Occupation_Other","Occupation_Professional","Occupation_Retired","Occupation_Self","Occupation_Student","ServiceAreaFreq"],"feature_types":["float","float","float","float","float","float","float","float","float","float","float","float","float","float","float","float","float","float","float","float","float","int","int","int","float","float","float","float","float","int","int","int","int","int","int","int","int","int","int","int","int","int","int","int","int","int","int","int","float","int","int","int","int","int","int","int","int","int","int","int","int","int","int","int","int","int","int","int","int","int","int","float"],"gradient_booster":{"model":{"cats":{"enc":[],"feature_segments":[],"sorted_idx":[]},"gbtree_model_param":{"num_parallel_tree":"1","num_trees":"400"},"iteration_indptr":[0,1,2,3,4,5,6,7,8,9,10,11,12,13,14,15,16,17,18,19,20,21,22,23,24,25,26,27,28,29,30,31,32,33,34,35,36,37,38,39,40,41,42,43,44,45,46,47,48,49,50,51,52,53,54,55,56,57,58,59,60,61,62,63,64,65,66,67,68,69,70,71,72,73,74,75,76,77,78,79,80,81,82,83,84,85,86,87,88,89,90,91,92,93,94,95,96,97,98,99,100,101,102,103,104,105,106,107,108,109,110,111,112,113,114,115,116,117,118,119,120,121,122,123,124,125,126,127,128,129,130,131,132,133,134,135,136,137,138,139,140,141,142,143,144,145,146,147,148,149,150,151,152,153,154,155,156,157,158,159,160,161,162,163,164,165,166,167,168,169,170,171,172,173,174,175,176,177,178,179,180,181,182,183,184,185,186,187,188,189,190,191,192,193,194,195,196,197,198,199,200,201,202,203,204,205,206,207,208,209,210,211,212,213,214,215,216,217,218,219,220,221,222,223,224,225,226,227,228,229,230,231,232,233,234,235,236,237,238,239,240,241,242,243,244,245,246,247,248,249,250,251,252,253,254,255,256,257,258,259,260,261,262,263,264,265,266,267,268,269,270,271,272,273,274,275,276,277,278,279,280,281,282,283,284,285,286,287,288,289,290,291,292,293,294,295,296,297,298,299,300,301,302,303,304,305,306,307,308,309,310,311,312,313,314,315,316,317,318,319,320,321,322,323,324,325,326,327,328,329,330,331,332,333,334,335,336,337,338,339,340,341,342,343,344,345,346,347,348,349,350,351,352,353,354,355,356,357,358,359,360,361,362,363,364,365,366,367,368,369,370,371,372,373,374,375,376,377,378,379,380,381,382,383,384,385,386,387,388,389,390,391,392,393,394,395,396,397,398,399,400],"tree_info":[0,0,0,0,0,0,0,0,0,0,0,0,0,0,0,0,0,0,0,0,0,0,0,0,0,0,0,0,0,0,0,0,0,0,0,0,0,0,0,0,0,0,0,0,0,0,0,0,0,0,0,0,0,0,0,0,0,0,0,0,0,0,0,0,0,0,0,0,0,0,0,0,0,0,0,0,0,0,0,0,0,0,0,0,0,0,0,0,0,0,0,0,0,0,0,0,0,0,0,0,0,0,0,0,0,0,0,0,0,0,0,0,0,0,0,0,0,0,0,0,0,0,0,0,0,0,0,0,0,0,0,0,0,0,0,0,0,0,0,0,0,0,0,0,0,0,0,0,0,0,0,0,0,0,0,0,0,0,0,0,0,0,0,0,0,0,0,0,0,0,0,0,0,0,0,0,0,0,0,0,0,0,0,0,0,0,0,0,0,0,0,0,0,0,0,0,0,0,0,0,0,0,0,0,0,0,0,0,0,0,0,0,0,0,0,0,0,0,0,0,0,0,0,0,0,0,0,0,0,0,0,0,0,0,0,0,0,0,0,0,0,0,0,0,0,0,0,0,0,0,0,0,0,0,0,0,0,0,0,0,0,0,0,0,0,0,0,0,0,0,0,0,0,0,0,0,0,0,0,0,0,0,0,0,0,0,0,0,0,0,0,0,0,0,0,0,0,0,0,0,0,0,0,0,0,0,0,0,0,0,0,0,0,0,0,0,0,0,0,0,0,0,0,0,0,0,0,0,0,0,0,0,0,0,0,0,0,0,0,0,0,0,0,0,0,0,0,0,0,0,0,0,0,0,0,0,0,0,0,0,0,0,0,0,0,0,0,0,0,0,0,0,0,0,0,0,0,0,0,0,0,0,0,0,0,0,0,0,0,0,0,0,0,0,0,0,0,0,0,0],"trees":[{"base_weights":[4.279339E-3,-4.2918366E-1,2.9232883E-1,-7.5206363E-1,-1.874753E-1,5.849885E-1,2.1822496E-1,-2.060426E-1,-9.011882E-1,3.5577846E-1,-3.8469478E-1,1.1452817E0,5.2385837E-1,9.9830365E-1,1.9386949E-1,-3.9449686E-1,4.4477366E-2,-4.3959898E-1,-9.950126E-1,5.879567E-1,2.1993017E-2,-5.291177E-1,1.5720492E-2,4.786147E-1,1.2333703E0,7.3243594E-1,4.1985658E-1,1.0711725E0,-2.7739117E-2,1.6974008E-1,7.89118E-1,-6.7255294E-1,-2.6057033E-2,-2.4932292E-1,6.757347E-1,-1.2382578E0,-3.2954106E-1,-1.0477395E0,-2.2882152E-1,1.4226998E0,5.0285953E-1,-4.2394227E-1,2.1191E-1,-6.1105594E-2,-6.44079E-1,-8.348516E-2,7.322797E-1,5.4657187E-2,-2.3058934E-2,1.3996582E0,7.3305994E-1,8.342507E-1,3.1279036E-1,-5.047691E-1,4.4284165E-1,1.5820794E-1,1.1544586E0,2.9615963E-1,6.015481E-2,-1.7759877E-1,8.4297836E-1,-2.2893757E-2,-6.722026E-2,-3.0721081E-2,1.1105761E-2,-2.1929743E-2,2.6548654E-2,4.7886968E-2,8.815628E-3,-7.5726256E-2,-1.39451055E-2,-1.0576915E-2,-4.2750422E-2,4.164268E-2,-5.3078976E-2,3.9138388E-2,-2.0434497E-2,5.407686E-2,8.642904E-2,3.513132E-2,1.02649955E-2,-3.4112018E-2,1.6009321E-2,2.3604734E-2,-9.027242E-3,2.5320882E-3,-2.6342899E-2,-3.978611E-2,-2.1025749E-2,1.6119214E-3,-2.689895E-2,5.2326232E-2,2.034694E-2,3.284294E-2,7.281263E-2,-1.1284935E-2,5.054223E-2,5.307446E-2,3.4598242E-2,-4.6852686E-2,2.2684013E-2,1.9477593E-2,-4.9069934E-2,3.1735383E-2,1.7200636E-2,2.6756993E-2,-2.2902288E-2,6.183055E-2,1.3728867E-2,1.1188864E-2,2.6940173E-2,2.7328853E-2,-1.49539E-5,3.5533965E-2,-4.847944E-2,4.968462E-2,2.5957584E-2],"categories":[],"categories_nodes":[],"categories_segments":[],"categories_sizes":[],"default_left":[0,0,0,0,0,0,0,0,0,0,0,0,0,0,0,0,0,0,0,0,0,0,0,0,0,0,0,0,0,0,0,0,0,0,0,0,0,0,0,0,0,0,0,0,0,0,0,0,0,0,0,0,0,0,0,0,0,0,0,0,0,0,0,0,0,0,0,0,0,0,0,0,0,0,0,0,0,0,0,0,0,0,0,0,0,0,0,0,0,0,0,0,0,0,0,0,0,0,0,0,0,0,0,0,0,0,0,0,0,0,0,0,0,0,0,0,0],"id":0,"left_children":[1,3,5,7,9,11,13,15,17,19,21,23,25,27,29,31,33,35,37,39,41,43,45,47,49,51,53,55,-1,57,59,61,63,65,67,69,71,73,75,77,79,81,83,85,87,89,91,-1,-1,93,95,97,99,101,103,105,107,109,111,113,115,-1,-1,-1,-1,-1,-1,-1,-1,-1,-1,-1,-1,-1,-1,-1,-1,-1,-1,-1,-1,-1,-1,-1,-1,-1,-1,-1,-1,-1,-1,-1,-1,-1,-1,-1,-1,-1,-1,-1,-1,-1,-1,-1,-1,-1,-1,-1,-1,-1,-1,-1,-1,-1,-1,-1,-1],"loss_changes":[1.453032E3,3.624463E2,1.5149615E2,1.6174353E2,2.849494E2,4.7762177E1,1.05829315E2,2.0220104E1,6.720044E1,5.4897453E1,1.12819885E2,7.517212E0,2.7349182E1,1.9687866E1,7.760832E1,2.5011307E1,3.4406055E1,2.2939377E1,5.216394E1,2.8965134E1,2.4794767E1,7.709851E1,3.6889183E1,1.0753552E1,9.0664215E0,1.7806152E1,1.835382E1,1.2096924E1,0E0,7.206427E1,1.111467E1,1.9460453E1,1.5631294E1,1.8945677E1,8.126661E0,8.007736E0,1.4378916E1,3.24646E1,1.5749187E1,2.1072922E0,2.2487068E1,1.7029032E1,2.1043148E1,1.4798976E1,3.868222E1,2.3999212E1,6.0258217E0,0E0,0E0,2.8247528E0,8.84692E0,1.0248795E1,1.5245356E1,9.401808E0,1.5575546E1,3.650342E0,1.0346542E1,4.2307022E1,8.19952E1,9.088773E0,9.228119E0,0E0,0E0,0E0,0E0,0E0,0E0,0E0,0E0,0E0,0E0,0E0,0E0,0E0,0E0,0E0,0E0,0E0,0E0,0E0,0E0,0E0,0E0,0E0,0E0,0E0,0E0,0E0,0E0,0E0,0E0,0E0,0E0,0E0,0E0,0E0,0E0,0E0,0E0,0E0,0E0,0E0,0E0,0E0,0E0,0E0,0E0,0E0,0E0,0E0,0E0,0E0,0E0,0E0,0E0,0E0,0E0],"parents":[2147483647,0,0,1,1,2,2,3,3,4,4,5,5,6,6,7,7,8,8,9,9,10,10,11,11,12,12,13,13,14,14,15,15,16,16,17,17,18,18,19,19,20,20,21,21,22,22,23,23,24,24,25,25,26,26,27,27,29,29,30,30,31,31,32,32,33,33,34,34,35,35,36,36,37,37,38,38,39,39,40,40,41,41,42,42,43,43,44,44,45,45,46,46,49,49,50,50,51,51,52,52,53,53,54,54,55,55,56,56,57,57,58,58,59,59,60,60],"right_children":[2,4,6,8,10,12,14,16,18,20,22,24,26,28,30,32,34,36,38,40,42,44,46,48,50,52,54,56,-1,58,60,62,64,66,68,70,72,74,76,78,80,82,84,86,88,90,92,-1,-1,94,96,98,100,102,104,106,108,110,112,114,116,-1,-1,-1,-1,-1,-1,-1,-1,-1,-1,-1,-1,-1,-1,-1,-1,-1,-1,-1,-1,-1,-1,-1,-1,-1,-1,-1,-1,-1,-1,-1,-1,-1,-1,-1,-1,-1,-1,-1,-1,-1,-1,-1,-1,-1,-1,-1,-1,-1,-1,-1,-1,-1,-1,-1,-1],"split_conditions":[3.04E2,1.1E1,1.3E1,4E1,1.5E1,4.2E1,2E0,2.6E1,-1.76E2,1.2E1,1E0,4.4E1,-7.4E1,1E0,1E0,1E0,2E0,4.2E1,4.48E2,7.2E1,6.2E1,-1.54E2,1E0,2E1,5.2E1,5E0,3.06E2,-4E-1,-2.7739117E-2,3.6E1,3E1,8.208122E-3,2E0,8E-1,2.38E2,3.154E2,1.02650495E-2,2E0,4.8974477E-4,3.8E1,4E0,1.57E1,4E0,1E0,1.69E2,5.63E1,-3.1E1,5.4657187E-2,-2.3058934E-2,1.1E1,2.1E1,-2.11E2,-5.54E1,1E0,2.1940565E-3,5.97E2,3E-1,6.3E0,-2.25E2,6.50381E-3,1E0,-2.2893757E-2,-6.722026E-2,-3.0721081E-2,1.1105761E-2,-2.1929743E-2,2.6548654E-2,4.7886968E-2,8.815628E-3,-7.5726256E-2,-1.39451055E-2,-1.0576915E-2,-4.2750422E-2,4.164268E-2,-5.3078976E-2,3.9138388E-2,-2.0434497E-2,5.407686E-2,8.642904E-2,3.513132E-2,1.02649955E-2,-3.4112018E-2,1.6009321E-2,2.3604734E-2,-9.027242E-3,2.5320882E-3,-2.6342899E-2,-3.978611E-2,-2.1025749E-2,1.6119214E-3,-2.689895E-2,5.2326232E-2,2.034694E-2,3.284294E-2,7.281263E-2,-1.1284935E-2,5.054223E-2,5.307446E-2,3.4598242E-2,-4.6852686E-2,2.2684013E-2,1.9477593E-2,-4.9069934E-2,3.1735383E-2,1.7200636E-2,2.6756993E-2,-2.2902288E-2,6.183055E-2,1.3728867E-2,1.1188864E-2,2.6940173E-2,2.7328853E-2,-1.49539E-5,3.5533965E-2,-4.847944E-2,4.968462E-2,2.5957584E-2],"split_indices":[26,21,21,2,21,1,1,2,6,6,30,28,6,6,40,53,22,28,6,1,26,6,40,1,28,50,26,7,0,2,48,71,22,5,26,13,71,1,71,2,50,8,50,43,26,10,6,0,0,21,2,6,7,56,71,26,16,18,6,71,6,0,0,0,0,0,0,0,0,0,0,0,0,0,0,0,0,0,0,0,0,0,0,0,0,0,0,0,0,0,0,0,0,0,0,0,0,0,0,0,0,0,0,0,0,0,0,0,0,0,0,0,0,0,0,0,0],"split_type":[0,0,0,0,0,0,0,0,0,0,0,0,0,0,0,0,0,0,0,0,0,0,0,0,0,0,0,0,0,0,0,0,0,0,0,0,0,0,0,0,0,0,0,0,0,0,0,0,0,0,0,0,0,0,0,0,0,0,0,0,0,0,0,0,0,0,0,0,0,0,0,0,0,0,0,0,0,0,0,0,0,0,0,0,0,0,0,0,0,0,0,0,0,0,0,0,0,0,0,0,0,0,0,0,0,0,0,0,0,0,0,0,0,0,0,0,0],"sum_hessian":[1.1635398E4,4.6450054E3,6.9903926E3,1.9876895E3,2.6573157E3,1.4110026E3,5.57939E3,4.269156E2,1.5607739E3,7.07542E2,1.9497738E3,1.3705717E2,1.2739454E3,1.677138E2,5.4116763E3,2.433102E2,1.8360538E2,2.6461743E2,1.2961565E3,4.1683423E2,2.9070776E2,1.4327015E3,5.170722E2,1.6746983E1,1.20310196E2,4.218583E2,8.520871E2,1.6049393E2,7.219878E0,5.202086E3,2.095903E2,1.3819275E2,1.0511745E2,1.25704796E2,5.7900585E1,3.0807226E1,2.338102E2,1.2123583E3,8.379818E1,3.710842E1,3.797258E2,8.646083E1,2.0424693E2,2.8282825E2,1.1498733E3,4.5496677E2,6.2105404E1,1.0027105E1,6.719878E0,8.894876E1,3.1361437E1,3.3869568E2,8.316263E1,2.0159636E1,8.319275E2,1.3659636E1,1.4683429E2,2.4147192E3,2.787367E3,1.0939756E1,1.9865054E2,1.0600299E2,3.218976E1,3.0746983E1,7.437046E1,1.0151805E2,2.418674E1,3.6418663E1,2.1481922E1,2.346988E1,7.337348E0,1.9207828E2,4.1731922E1,8.424696E0,1.2039336E3,1.2144574E1,7.16536E1,1.968674E1,1.7421679E1,2.2638246E2,1.5334334E2,6.4243965E1,2.2216862E1,1.2269876E2,8.154818E1,2.2881923E2,5.4009026E1,6.836174E2,4.6625595E2,3.633734E2,9.159336E1,3.0463844E1,3.1641558E1,7.189757E0,8.1759E1,7.087348E0,2.4274088E1,1.27927666E2,2.10768E2,7.852409E0,7.531022E1,7.072287E0,1.3087348E1,2.8099088E2,5.509366E2,8.557226E0,5.102409E0,1.3392465E2,1.2909636E1,1.861379E3,5.533402E2,3.0723785E2,2.480129E3,5.204818E0,5.734939E0,1.3414755E2,6.450299E1],"tree_param":{"num_deleted":"0","num_feature":"72","num_nodes":"117","size_leaf_vector":"1"}},{"base_weights":[5.462997E-3,-3.8316017E-1,2.65313E-1,-7.333551E-1,-2.1719497E-1,5.055845E-1,1.992231E-1,-2.459961E-1,-8.769694E-1,-2.687377E-1,5.079885E-1,6.3213784E-1,1.6246432E-1,9.245496E-1,1.7557432E-1,5.542735E-1,-2.8511414E-1,-1.0358281E0,-5.770605E-1,-3.589448E-1,2.7029762E-2,3.777772E-1,9.1342837E-1,1.0168269E0,5.4413813E-1,1.084506E-1,9.77245E-1,1.0627426E0,-2.3483336E-1,4.7482008E-1,1.3086316E-1,4.486628E-3,5.1145952E-2,-4.630944E-1,-8.584414E-2,-8.1190246E-1,-1.2783481E0,-7.194204E-1,-2.6143134E-1,1.0056417E0,-3.8473117E-1,6.9865026E-2,-9.66516E-1,5.142257E-1,-3.3791533E-1,1.4896374E0,6.274068E-1,1.1882567E0,7.4014E-1,5.235863E-1,1.5258573E0,3.235254E-1,-7.352561E-2,5.109767E-1,7.299716E-2,3.0335372E-3,1.1191672E0,-4.543979E-2,2.8190255E-1,6.7629313E-1,8.871163E-2,2.4816395E-1,1.749789E-2,-1.2629416E-3,-3.476418E-2,-3.1189835E-2,3.1884897E-3,-1.5941987E-2,-4.670806E-2,2.5224773E-2,-6.569704E-2,-4.412956E-2,-1.3539137E-2,-7.933113E-3,-8.635574E-2,5.9069958E-2,-7.769543E-3,-1.0651355E-2,-2.673532E-2,9.15302E-3,-1.1669658E-2,-9.705695E-3,-7.759896E-2,3.0778622E-2,-1.7917069E-2,-4.0893823E-2,1.9670067E-2,4.6239547E-2,8.5052475E-2,-8.368737E-3,4.6309605E-2,4.240204E-2,6.576868E-2,5.6813575E-2,2.3160296E-2,-4.4779018E-2,2.6826102E-2,8.6301856E-2,4.5857474E-2,2.0906666E-2,-4.033574E-2,-4.7645576E-2,4.3344954E-3,5.556454E-2,-2.4339074E-2,5.9338856E-2,1.1738444E-2,-8.523076E-3,3.5406645E-2,4.346969E-2,2.101182E-2,1.240065E-2,-1.9136772E-2,1.5997885E-2,-6.889043E-3,1.5261278E-2,-1.7839536E-3],"categories":[],"categories_nodes":[],"categories_segments":[],"categories_sizes":[],"default_left":[0,0,0,0,0,0,0,0,0,0,0,0,0,0,0,0,0,0,0,0,0,0,0,0,0,0,0,0,0,0,0,0,0,0,0,0,0,0,0,0,0,0,0,0,0,0,0,0,0,0,0,0,0,0,0,0,0,0,0,0,0,0,0,0,0,0,0,0,0,0,0,0,0,0,0,0,0,0,0,0,0,0,0,0,0,0,0,0,0,0,0,0,0,0,0,0,0,0,0,0,0,0,0,0,0,0,0,0,0,0,0,0,0,0,0,0,0],"id":1,"left_children":[1,3,5,7,9,11,13,15,17,19,21,23,25,27,29,31,33,35,37,39,41,43,45,47,49,51,53,55,57,59,61,-1,-1,63,65,67,69,71,73,75,77,79,81,83,85,87,89,91,93,95,97,99,101,103,-1,-1,105,-1,107,109,111,113,115,-1,-1,-1,-1,-1,-1,-1,-1,-1,-1,-1,-1,-1,-1,-1,-1,-1,-1,-1,-1,-1,-1,-1,-1,-1,-1,-1,-1,-1,-1,-1,-1,-1,-1,-1,-1,-1,-1,-1,-1,-1,-1,-1,-1,-1,-1,-1,-1,-1,-1,-1,-1,-1,-1],"loss_changes":[1.1804614E3,2.7208472E2,1.1114252E2,1.05171875E2,1.1897757E2,6.549228E1,9.410846E1,1.0930138E1,5.4792786E1,7.922659E1,1.0811668E1,3.67937E1,1.7866436E1,2.8014832E1,7.116501E1,3.4733224E0,1.1618889E1,4.0168457E1,1.8002533E1,8.044833E1,2.963946E1,1.596105E1,7.4157333E0,8.807861E0,1.7359436E1,1.5057393E1,4.940172E0,8.69722E0,6.968994E0,5.3742325E1,6.1603516E1,0E0,0E0,1.761155E1,1.2620821E1,2.3648956E1,2.3667053E1,2.014331E1,1.8917313E1,8.850952E0,5.740924E1,2.2941254E1,1.2716423E1,1.2262672E1,9.619739E0,3.4705353E-1,8.605895E0,4.266693E0,8.335751E0,1.669168E1,6.0201645E-1,1.9181704E1,2.9512167E1,9.159717E0,0E0,0E0,8.493179E0,0E0,2.3714848E0,2.2098877E1,1.7991861E1,6.313237E1,3.6075043E1,0E0,0E0,0E0,0E0,0E0,0E0,0E0,0E0,0E0,0E0,0E0,0E0,0E0,0E0,0E0,0E0,0E0,0E0,0E0,0E0,0E0,0E0,0E0,0E0,0E0,0E0,0E0,0E0,0E0,0E0,0E0,0E0,0E0,0E0,0E0,0E0,0E0,0E0,0E0,0E0,0E0,0E0,0E0,0E0,0E0,0E0,0E0,0E0,0E0,0E0,0E0,0E0,0E0,0E0],"parents":[2147483647,0,0,1,1,2,2,3,3,4,4,5,5,6,6,7,7,8,8,9,9,10,10,11,11,12,12,13,13,14,14,15,15,16,16,17,17,18,18,19,19,20,20,21,21,22,22,23,23,24,24,25,25,26,26,27,27,28,28,29,29,30,30,33,33,34,34,35,35,36,36,37,37,38,38,39,39,40,40,41,41,42,42,43,43,44,44,45,45,46,46,47,47,48,48,49,49,50,50,51,51,52,52,53,53,56,56,58,58,59,59,60,60,61,61,62,62],"right_children":[2,4,6,8,10,12,14,16,18,20,22,24,26,28,30,32,34,36,38,40,42,44,46,48,50,52,54,56,58,60,62,-1,-1,64,66,68,70,72,74,76,78,80,82,84,86,88,90,92,94,96,98,100,102,104,-1,-1,106,-1,108,110,112,114,116,-1,-1,-1,-1,-1,-1,-1,-1,-1,-1,-1,-1,-1,-1,-1,-1,-1,-1,-1,-1,-1,-1,-1,-1,-1,-1,-1,-1,-1,-1,-1,-1,-1,-1,-1,-1,-1,-1,-1,-1,-1,-1,-1,-1,-1,-1,-1,-1,-1,-1,-1,-1,-1,-1],"split_conditions":[3.04E2,2E0,3.57E2,4E1,1E0,2E0,2E0,2E0,2.4E1,8.3E1,8.8E1,1.01E2,1E0,3E-1,-1.46E2,1.1E1,3E1,5E0,1.32E0,1.2E1,1E0,1.53E1,9.001E1,1E0,1E0,-2.1E1,3.3E-1,-6.2E0,2E0,7.3E2,3.6E1,4.486628E-3,5.1145952E-2,1E0,-2.25E2,-1.1E2,-3.2E1,2E0,1.37E2,3E-1,-1.7E1,5E0,2.408E2,6.6E1,1E-1,5E0,4E1,3.2E2,6E0,1.01E1,-1.1E1,4.21E0,-2.9E0,7E0,7.299716E-2,3.0335372E-3,6.8E1,-4.543979E-2,2E0,3E0,-2.32E2,5.6E1,1.31E2,-1.2629416E-3,-3.476418E-2,-3.1189835E-2,3.1884897E-3,-1.5941987E-2,-4.670806E-2,2.5224773E-2,-6.569704E-2,-4.412956E-2,-1.3539137E-2,-7.933113E-3,-8.635574E-2,5.9069958E-2,-7.769543E-3,-1.0651355E-2,-2.673532E-2,9.15302E-3,-1.1669658E-2,-9.705695E-3,-7.759896E-2,3.0778622E-2,-1.7917069E-2,-4.0893823E-2,1.9670067E-2,4.6239547E-2,8.5052475E-2,-8.368737E-3,4.6309605E-2,4.240204E-2,6.576868E-2,5.6813575E-2,2.3160296E-2,-4.4779018E-2,2.6826102E-2,8.6301856E-2,4.5857474E-2,2.0906666E-2,-4.033574E-2,-4.7645576E-2,4.3344954E-3,5.556454E-2,-2.4339074E-2,5.9338856E-2,1.1738444E-2,-8.523076E-3,3.5406645E-2,4.346969E-2,2.101182E-2,1.240065E-2,-1.9136772E-2,1.5997885E-2,-6.889043E-3,1.5261278E-2,-1.7839536E-3],"split_indices":[26,24,26,2,40,24,1,1,4,4,4,1,40,16,6,2,0,45,3,1,47,15,0,34,40,6,3,7,50,1,2,0,0,51,6,6,7,22,14,7,6,50,13,2,5,45,27,26,45,0,6,3,7,18,0,0,27,0,22,50,6,27,1,0,0,0,0,0,0,0,0,0,0,0,0,0,0,0,0,0,0,0,0,0,0,0,0,0,0,0,0,0,0,0,0,0,0,0,0,0,0,0,0,0,0,0,0,0,0,0,0,0,0,0,0,0,0],"split_type":[0,0,0,0,0,0,0,0,0,0,0,0,0,0,0,0,0,0,0,0,0,0,0,0,0,0,0,0,0,0,0,0,0,0,0,0,0,0,0,0,0,0,0,0,0,0,0,0,0,0,0,0,0,0,0,0,0,0,0,0,0,0,0,0,0,0,0,0,0,0,0,0,0,0,0,0,0,0,0,0,0,0,0,0,0,0,0,0,0,0,0,0,0,0,0,0,0,0,0,0,0,0,0,0,0,0,0,0,0,0,0,0,0,0,0,0,0],"sum_hessian":[1.1687613E4,4.683159E3,7.004454E3,1.5047153E3,3.1784438E3,1.5096034E3,5.4948506E3,3.4310205E2,1.1616133E3,2.9681133E3,2.103305E2,1.102226E3,4.073774E2,1.722962E2,5.322554E3,1.537588E1,3.2772617E2,7.5777405E2,4.0383917E2,2.2742644E3,6.9384894E2,1.6066348E2,4.9667015E1,2.0323471E2,8.989913E2,3.8311304E2,2.4264359E1,1.5402098E2,1.8275227E1,6.906314E2,4.631923E3,8.320112E0,7.055768E0,1.7241121E2,1.5531497E2,3.962515E2,3.6152255E2,2.774294E2,1.2640975E2,4.147463E1,2.2327898E3,6.660623E2,2.7786615E1,1.3517377E2,2.5489717E1,1.507975E1,3.4587265E1,1.2345174E2,7.978298E1,8.820591E2,1.6932177E1,1.7523166E2,2.0788138E2,1.3389341E1,1.0875017E1,8.32092E0,1.4570006E2,7.6017623E0,1.0673464E1,4.533302E2,2.3730121E2,2.2758633E3,2.3560598E3,6.0131317E1,1.12279884E2,3.3106762E1,1.22208206E2,7.9448364E1,3.1680313E2,6.8182697E0,3.5470428E2,2.02729E2,7.470042E1,1.191627E2,7.24706E0,3.6006428E1,5.4682026E0,1.0421129E3,1.1906768E3,4.8530994E2,1.8075238E2,1.255472E1,1.5231895E1,1.213713E2,1.3802472E1,1.5318118E1,1.0171599E1,5.570624E0,9.509127E0,9.57013E0,2.5017134E1,3.566611E1,8.778563E1,3.155011E1,4.823287E1,7.351061E0,8.7470807E2,1.1360566E1,5.5716114E0,1.6227806E2,1.29536E1,3.1274607E1,1.7660678E2,8.288606E0,5.1007357E0,1.3503508E2,1.0664985E1,5.4691024E0,5.2043614E0,2.5707007E2,1.9626013E2,1.7772282E2,5.9578392E1,1.919051E3,3.5681223E2,3.6677722E2,1.9892825E3],"tree_param":{"num_deleted":"0","num_feature":"72","num_nodes":"117","size_leaf_vector":"1"}},{"base_weights":[1.5260715E-2,-3.63365E-1,2.67886E-1,-7.070641E-1,-1.982884E-1,1.0259974E0,2.4543762E-1,-2.176653E-1,-8.309815E-1,-3.2609656E-1,1.03810586E-1,1.1485504E0,1.0333961E-1,4.4632298E-1,1.8130979E-1,-1.724044E-1,-8.718282E-2,-3.2373866E-1,-9.158151E-1,-4.248662E-1,-1.3872967E-2,3.428151E-2,7.475028E-1,1.2298007E0,3.2840472E-1,5.4598402E-2,-3.8420862E-1,5.504474E-1,1.7330796E-1,1.5921202E-1,7.5577897E-1,8.178029E-1,-2.3936222E-1,5.9728462E-2,-3.7615037E-1,-1.0212464E0,-5.475773E-1,9.226327E-1,-4.4672066E-1,-8.5885026E-2,9.838305E-1,1.7369819E-1,-2.04312E-1,9.952728E-1,2.7246338E-1,7.6431013E-3,1.2755628E0,-1.12711206E-1,4.845394E-2,2.141053E-2,-5.1142395E-2,5.301872E-1,7.8177534E-2,2.7723223E-1,-2.0715824E-1,1.8436532E-1,-3.3395225E-1,-1.9328421E-2,8.174649E-1,6.2450815E-2,1.9786391E-2,-1.5941218E-2,1.7790345E-2,-1.3312017E-2,-5.7214327E-2,-3.9040335E-2,-5.8838952E-2,1.5292348E-2,-3.1674217E-2,7.7174515E-2,1.7223148E-2,-3.0177254E-2,-1.5719328E-2,-1.9004872E-3,-3.3534E-2,3.121092E-2,7.275533E-2,-2.7531588E-2,1.0603483E-2,-1.7237302E-2,1.4735209E-2,4.128128E-2,7.523315E-2,2.959464E-2,-3.3823833E-2,6.545139E-2,2.2593906E-2,1.5202596E-2,-2.5497153E-2,-8.10486E-3,9.906499E-3,2.0013234E-2,3.305517E-2,3.980053E-3,2.7299387E-2,2.3971966E-2,-2.2740114E-2,1.1463921E-2,-5.9154998E-3,-1.1653459E-2,-4.6973135E-2,4.4129986E-2,-2.929976E-4],"categories":[],"categories_nodes":[],"categories_segments":[],"categories_sizes":[],"default_left":[0,0,0,0,0,0,0,0,0,0,0,0,0,0,0,0,0,0,0,0,0,0,0,0,0,0,0,0,0,0,0,0,0,0,0,0,0,0,0,0,0,0,0,0,0,0,0,0,0,0,0,0,0,0,0,0,0,0,0,0,0,0,0,0,0,0,0,0,0,0,0,0,0,0,0,0,0,0,0,0,0,0,0,0,0,0,0,0,0,0,0,0,0,0,0,0,0,0,0,0,0,0,0],"id":2,"left_children":[1,3,5,7,9,11,13,15,17,19,21,23,25,27,29,31,-1,33,35,37,39,41,43,45,47,-1,49,51,53,55,57,59,61,-1,63,65,67,69,71,73,75,77,79,81,83,-1,85,87,-1,89,-1,91,-1,93,95,97,99,-1,101,-1,-1,-1,-1,-1,-1,-1,-1,-1,-1,-1,-1,-1,-1,-1,-1,-1,-1,-1,-1,-1,-1,-1,-1,-1,-1,-1,-1,-1,-1,-1,-1,-1,-1,-1,-1,-1,-1,-1,-1,-1,-1,-1,-1],"loss_changes":[1.1162562E3,2.648424E2,1.1887277E2,9.169385E1,1.21906E2,2.2608582E1,8.75159E1,2.0933876E1,5.1707336E1,6.840225E1,4.2005997E1,1.1412781E1,1.2308565E1,4.6659943E1,6.533293E1,2.0066374E1,0E0,1.4351824E1,3.9616028E1,5.0038147E1,3.8460117E1,2.8264484E1,1.0499031E1,7.7385406E0,5.012083E0,0E0,4.4927382E0,2.3600128E1,1.8069754E1,6.166726E1,1.3755463E1,3.00175E0,1.3426044E1,0E0,1.4016975E1,2.9122375E1,1.723867E1,9.239544E0,3.4238556E1,1.3947773E1,5.1992035E0,1.5019304E1,2.206792E1,3.9220886E0,1.0325672E1,0E0,3.6612396E0,2.004284E0,0E0,4.0617633E-1,0E0,1.9607819E1,0E0,1.8984337E1,1.6933723E1,6.4272125E1,1.4524994E1,0E0,9.726212E0,0E0,0E0,0E0,0E0,0E0,0E0,0E0,0E0,0E0,0E0,0E0,0E0,0E0,0E0,0E0,0E0,0E0,0E0,0E0,0E0,0E0,0E0,0E0,0E0,0E0,0E0,0E0,0E0,0E0,0E0,0E0,0E0,0E0,0E0,0E0,0E0,0E0,0E0,0E0,0E0,0E0,0E0,0E0,0E0],"parents":[2147483647,0,0,1,1,2,2,3,3,4,4,5,5,6,6,7,7,8,8,9,9,10,10,11,11,12,12,13,13,14,14,15,15,17,17,18,18,19,19,20,20,21,21,22,22,23,23,24,24,26,26,27,27,28,28,29,29,30,30,31,31,32,32,34,34,35,35,36,36,37,37,38,38,39,39,40,40,41,41,42,42,43,43,44,44,46,46,47,47,49,49,51,51,53,53,54,54,55,55,56,56,58,58],"right_children":[2,4,6,8,10,12,14,16,18,20,22,24,26,28,30,32,-1,34,36,38,40,42,44,46,48,-1,50,52,54,56,58,60,62,-1,64,66,68,70,72,74,76,78,80,82,84,-1,86,88,-1,90,-1,92,-1,94,96,98,100,-1,102,-1,-1,-1,-1,-1,-1,-1,-1,-1,-1,-1,-1,-1,-1,-1,-1,-1,-1,-1,-1,-1,-1,-1,-1,-1,-1,-1,-1,-1,-1,-1,-1,-1,-1,-1,-1,-1,-1,-1,-1,-1,-1,-1,-1],"split_conditions":[3.04E2,1E0,2E0,3.6E1,1E0,6E1,3.65E2,8.82E1,-1.95E1,8.3E1,1E0,3E-1,4.23E2,1E0,1E0,1E0,-8.718282E-2,2E0,8E0,1.2E1,1E0,4E0,7.5028897E-3,-1.56E1,7.34E2,5.4598402E-2,1E0,1E0,6.1E1,7.6E1,3E1,1.409E1,6.63E2,5.9728462E-2,2.4E2,1E0,5E0,2.7425706E-3,7.3E0,6E0,2.53E1,1.7E1,6E0,2E0,4E0,7.6431013E-3,5.8E1,3E-1,4.845394E-2,1.699E1,-5.1142395E-2,1E0,7.8177534E-2,5E0,2.683801E-3,5.6E1,1.655E3,-1.9328421E-2,1.0333E2,6.2450815E-2,1.9786391E-2,-1.5941218E-2,1.7790345E-2,-1.3312017E-2,-5.7214327E-2,-3.9040335E-2,-5.8838952E-2,1.5292348E-2,-3.1674217E-2,7.7174515E-2,1.7223148E-2,-3.0177254E-2,-1.5719328E-2,-1.9004872E-3,-3.3534E-2,3.121092E-2,7.275533E-2,-2.7531588E-2,1.0603483E-2,-1.7237302E-2,1.4735209E-2,4.128128E-2,7.523315E-2,2.959464E-2,-3.3823833E-2,6.545139E-2,2.2593906E-2,1.5202596E-2,-2.5497153E-2,-8.10486E-3,9.906499E-3,2.0013234E-2,3.305517E-2,3.980053E-3,2.7299387E-2,2.3971966E-2,-2.2740114E-2,1.1463921E-2,-5.9154998E-3,-1.1653459E-2,-4.6973135E-2,4.4129986E-2,-2.929976E-4],"split_indices":[26,55,1,2,30,27,26,7,7,4,40,10,26,55,40,31,0,50,7,1,40,50,71,7,26,0,61,40,2,2,48,0,1,0,17,51,17,71,18,24,7,26,50,23,50,0,28,17,0,0,0,59,0,8,71,27,1,0,0,0,0,0,0,0,0,0,0,0,0,0,0,0,0,0,0,0,0,0,0,0,0,0,0,0,0,0,0,0,0,0,0,0,0,0,0,0,0,0,0,0,0,0,0],"split_type":[0,0,0,0,0,0,0,0,0,0,0,0,0,0,0,0,0,0,0,0,0,0,0,0,0,0,0,0,0,0,0,0,0,0,0,0,0,0,0,0,0,0,0,0,0,0,0,0,0,0,0,0,0,0,0,0,0,0,0,0,0,0,0,0,0,0,0,0,0,0,0,0,0,0,0,0,0,0,0,0,0,0,0,0,0,0,0,0,0,0,0,0,0,0,0,0,0,0,0,0,0,0,0],"sum_hessian":[1.1668146E4,4.669392E3,6.998755E3,1.5139586E3,3.1554333E3,1.9999402E2,6.7987607E3,3.0644452E2,1.207514E3,2.217291E3,9.3814246E2,1.7632822E2,2.3665812E1,1.6437208E3,5.15504E3,2.9869812E2,7.746407E0,1.7370453E2,1.0338096E3,1.6841588E3,5.3313214E2,8.476373E2,9.050515E1,1.5997981E2,1.6348398E1,7.40684E0,1.6258972E1,1.1891703E3,4.5455057E2,4.9653193E3,1.8972075E2,1.8208443E1,2.804897E2,5.069012E0,1.6863551E2,8.0232117E2,2.3148842E2,2.622083E1,1.657938E3,4.9809464E2,3.5037468E1,5.351857E2,3.1245157E2,5.876138E1,3.174377E1,6.6978054E0,1.5328201E2,1.0170141E1,6.1782565E0,1.0534602E1,5.72437E0,1.1673488E3,2.1821537E1,3.5724146E2,9.730911E1,4.7249546E3,2.4036479E2,9.450085E0,1.8027068E2,8.037598E0,1.0170846E1,2.4786154E2,3.262814E1,1.487045E2,1.9931028E1,3.175055E2,4.8481564E2,2.0936754E1,2.1055167E2,1.183857E1,1.438226E1,7.5712976E2,9.008082E2,4.6138736E2,3.67073E1,2.1191557E1,1.3845909E1,2.6253525E1,5.0893222E2,2.4407321E2,6.8378365E1,4.6046776E1,1.2714603E1,2.403084E1,7.712931E0,1.4673131E2,6.5506945E0,5.0775304E0,5.092611E0,5.208633E0,5.3259687E0,5.879345E2,5.794142E2,2.0660747E2,1.50634E2,2.5546097E1,7.1763016E1,4.114638E3,6.1031635E2,2.072244E2,3.3140396E1,1.6698793E2,1.3282733E1],"tree_param":{"num_deleted":"0","num_feature":"72","num_nodes":"103","size_leaf_vector":"1"}},{"base_weights":[-2.5315806E-3,-3.6308467E-1,2.4191861E-1,-6.657413E-1,-2.178227E-1,9.529714E-1,2.2086471E-1,-1.6822472E-1,-7.9870206E-1,-2.6017624E-1,4.132973E-1,1.0114045E0,-2.1002509E-2,5.221802E-1,1.7162025E-1,8.4577495E-1,-2.2475481E-1,-3.428138E-1,-8.981946E-1,9.243514E-2,-3.3290294E-1,1.0390446E0,2.9333422E-1,1.1161803E0,3.7979254E-1,8.0505586E-1,3.8228503E-1,4.1571084E-1,1.2161115E-1,5.493899E-3,6.0659952E-2,-1.9283623E-1,-8.074993E-2,-1.1968101E0,-2.3350239E-1,-1.0138546E0,-6.091115E-1,2.0610511E-1,-2.4904138E-1,1.0280719E0,-3.5484976E-1,1.2824591E0,1.1476903E-2,5.1840186E-1,2.4629675E-3,1.184929E0,4.2373502E-1,-2.5643662E-2,5.938711E-1,9.8443145E-1,3.5761946E-1,5.967409E-1,1.12417154E-1,5.457583E-1,6.9704674E-2,1.445713E-1,-4.282771E-1,-1.6945474E-2,6.4177327E-3,-2.0308586E-4,-7.6039255E-2,-1.4305879E-2,3.8495492E-2,1.1607164E-2,-5.2273847E-2,1.9351913E-3,-3.647553E-2,-5.976143E-2,1.1909447E-2,5.459045E-3,-4.2594757E-2,6.596933E-2,1.9395659E-2,-2.5795583E-2,-1.3755341E-2,3.139101E-2,8.111671E-2,-7.025869E-3,3.315875E-2,2.0261547E-2,-3.9305743E-2,1.7608872E-2,6.1828393E-2,-6.2855855E-3,5.4140277E-2,-1.1412545E-2,4.268061E-2,3.4041923E-2,5.8057513E-2,3.1438585E-2,-1.9319404E-2,3.3671048E-3,3.456711E-2,7.7551478E-3,-4.271179E-2,4.2898685E-2,2.4068361E-2,1.2697945E-2,-2.3224983E-2,1.1292213E-2,7.2654296E-4,-1.6906472E-2,-8.184902E-2],"categories":[],"categories_nodes":[],"categories_segments":[],"categories_sizes":[],"default_left":[0,0,0,0,0,0,0,0,0,0,0,0,0,0,0,0,0,0,0,0,0,0,0,0,0,0,0,0,0,0,0,0,0,0,0,0,0,0,0,0,0,0,0,0,0,0,0,0,0,0,0,0,0,0,0,0,0,0,0,0,0,0,0,0,0,0,0,0,0,0,0,0,0,0,0,0,0,0,0,0,0,0,0,0,0,0,0,0,0,0,0,0,0,0,0,0,0,0,0,0,0,0,0],"id":3,"left_children":[1,3,5,7,9,11,13,15,17,19,21,23,-1,25,27,29,31,33,35,37,39,41,43,45,47,49,51,53,55,-1,-1,57,-1,59,61,63,65,67,69,71,73,75,-1,77,79,81,83,-1,85,87,89,91,93,95,97,99,101,-1,-1,-1,-1,-1,-1,-1,-1,-1,-1,-1,-1,-1,-1,-1,-1,-1,-1,-1,-1,-1,-1,-1,-1,-1,-1,-1,-1,-1,-1,-1,-1,-1,-1,-1,-1,-1,-1,-1,-1,-1,-1,-1,-1,-1,-1],"loss_changes":[1.0240144E3,2.0624133E2,1.0344504E2,1.0054108E2,8.493474E1,1.6376068E1,9.971457E1,1.866043E1,5.415277E1,7.630968E1,1.4705498E1,1.221579E1,0E0,3.7063538E1,7.053911E1,4.524151E0,1.3267129E1,1.9951149E1,3.2315796E1,1.9823233E1,7.4025635E1,5.9666214E0,1.1074562E1,7.271988E0,5.7875237E0,2.4655655E1,3.6612663E1,4.4190063E1,6.0676155E1,0E0,0E0,1.4131213E1,0E0,9.402874E0,1.0428938E1,2.7902954E1,2.217733E1,1.7491512E1,2.7663485E1,6.834633E0,3.1038757E1,4.3682404E0,0E0,9.191557E0,2.4078737E1,5.9288483E0,6.0408816E0,0E0,5.235424E0,1.111174E1,1.854831E1,1.7627953E1,1.176293E1,1.3946243E1,2.6659979E1,4.871084E1,2.044091E1,0E0,0E0,0E0,0E0,0E0,0E0,0E0,0E0,0E0,0E0,0E0,0E0,0E0,0E0,0E0,0E0,0E0,0E0,0E0,0E0,0E0,0E0,0E0,0E0,0E0,0E0,0E0,0E0,0E0,0E0,0E0,0E0,0E0,0E0,0E0,0E0,0E0,0E0,0E0,0E0,0E0,0E0,0E0,0E0,0E0,0E0],"parents":[2147483647,0,0,1,1,2,2,3,3,4,4,5,5,6,6,7,7,8,8,9,9,10,10,11,11,13,13,14,14,15,15,16,16,17,17,18,18,19,19,20,20,21,21,22,22,23,23,24,24,25,25,26,26,27,27,28,28,31,31,33,33,34,34,35,35,36,36,37,37,38,38,39,39,40,40,41,41,43,43,44,44,45,45,46,46,48,48,49,49,50,50,51,51,52,52,53,53,54,54,55,55,56,56],"right_children":[2,4,6,8,10,12,14,16,18,20,22,24,-1,26,28,30,32,34,36,38,40,42,44,46,48,50,52,54,56,-1,-1,58,-1,60,62,64,66,68,70,72,74,76,-1,78,80,82,84,-1,86,88,90,92,94,96,98,100,102,-1,-1,-1,-1,-1,-1,-1,-1,-1,-1,-1,-1,-1,-1,-1,-1,-1,-1,-1,-1,-1,-1,-1,-1,-1,-1,-1,-1,-1,-1,-1,-1,-1,-1,-1,-1,-1,-1,-1,-1,-1,-1,-1,-1,-1,-1],"split_conditions":[3.06E2,1E0,2E0,3.6E1,1E0,1E0,-1.46E2,2E0,-1.63E2,-1.98E2,1.22E2,5.8E1,-2.1002509E-2,4.17E2,3.48E2,1E0,9.81E1,4.2E1,3.8E0,1E0,1.2E1,4.8E1,3E0,3E-1,-1E-1,4E0,-2.78E2,2E0,7.6E1,5.493899E-3,6.0659952E-2,3.396E1,-8.074993E-2,6.8564265E-4,1.99E1,2E1,1.7E0,1E-1,1.138E3,4.4E1,4E1,8E-1,1.1476903E-2,3.999E1,9.285561E-3,-6.2E0,7.34E2,-2.5643662E-2,1E0,2.3E0,1.5E0,6E1,6E1,9E1,9.9E-1,4.4E1,3.8E1,-1.6945474E-2,6.4177327E-3,-2.0308586E-4,-7.6039255E-2,-1.4305879E-2,3.8495492E-2,1.1607164E-2,-5.2273847E-2,1.9351913E-3,-3.647553E-2,-5.976143E-2,1.1909447E-2,5.459045E-3,-4.2594757E-2,6.596933E-2,1.9395659E-2,-2.5795583E-2,-1.3755341E-2,3.139101E-2,8.111671E-2,-7.025869E-3,3.315875E-2,2.0261547E-2,-3.9305743E-2,1.7608872E-2,6.1828393E-2,-6.2855855E-3,5.4140277E-2,-1.1412545E-2,4.268061E-2,3.4041923E-2,5.8057513E-2,3.1438585E-2,-1.9319404E-2,3.3671048E-3,3.456711E-2,7.7551478E-3,-4.271179E-2,4.2898685E-2,2.4068361E-2,1.2697945E-2,-2.3224983E-2,1.1292213E-2,7.2654296E-4,-1.6906472E-2,-8.184902E-2],"split_indices":[26,55,1,2,49,6,6,1,6,6,1,27,0,1,26,57,7,28,7,52,1,28,25,17,7,50,6,24,2,0,0,0,0,71,7,1,14,13,1,27,48,13,0,0,71,7,26,0,31,8,11,48,28,1,3,27,15,0,0,0,0,0,0,0,0,0,0,0,0,0,0,0,0,0,0,0,0,0,0,0,0,0,0,0,0,0,0,0,0,0,0,0,0,0,0,0,0,0,0,0,0,0,0],"split_type":[0,0,0,0,0,0,0,0,0,0,0,0,0,0,0,0,0,0,0,0,0,0,0,0,0,0,0,0,0,0,0,0,0,0,0,0,0,0,0,0,0,0,0,0,0,0,0,0,0,0,0,0,0,0,0,0,0,0,0,0,0,0,0,0,0,0,0,0,0,0,0,0,0,0,0,0,0,0,0,0,0,0,0,0,0,0,0,0,0,0,0,0,0,0,0,0,0,0,0,0,0,0,0],"sum_hessian":[1.1616406E4,4.693386E3,6.92302E3,1.5209236E3,3.172463E3,1.9781905E2,6.725201E3,3.2122363E2,1.1997E3,2.9735032E3,1.9895967E2,1.8999655E2,7.822499E0,9.433649E2,5.7818364E3,1.6225195E1,3.0499844E2,2.1571419E2,9.839857E2,5.0837997E2,2.4651233E3,3.0774328E1,1.6818535E2,1.6230515E2,2.76914E1,3.1058676E2,6.3277814E2,9.819076E2,4.7999287E3,5.8358617E0,1.0389334E1,2.992663E2,5.732142E0,2.3349257E1,1.9236493E2,7.010098E2,2.8297592E2,3.8171268E2,1.26667274E2,3.839371E1,2.4267295E3,2.3210728E1,7.563599E0,9.4376976E1,7.380837E1,1.4699925E2,1.53059E1,5.0863967E0,2.2605003E1,2.2084904E2,8.973772E1,3.519126E2,2.8086557E2,7.1325226E2,2.6865533E2,4.6082515E3,1.9167691E2,2.0567358E2,9.359272E1,5.2037244E0,1.8145533E1,1.8345982E2,8.905098E0,1.7193758E1,6.8381604E2,4.4455997E1,2.3851993E2,7.732333E0,3.7398035E2,7.99682E1,4.6699078E1,2.5657032E1,1.273668E1,8.018043E2,1.6249252E3,8.905298E0,1.430543E1,1.700589E1,7.7371086E1,4.9177155E1,2.4631222E1,9.039767E0,1.3795947E2,8.788477E0,6.517422E0,5.456271E0,1.7148733E1,8.304134E1,1.3780771E2,6.588202E1,2.3855698E1,5.3611103E1,2.9830148E2,2.6979156E2,1.1074002E1,1.198426E2,5.9340967E2,2.0014667E2,6.850867E1,2.8354253E3,1.7728265E3,1.7956436E2,1.2112546E1],"tree_param":{"num_deleted":"0","num_feature":"72","num_nodes":"103","size_leaf_vector":"1"}},{"base_weights":[-4.4794227E-3,-3.5736603E-1,2.2898413E-1,-6.492306E-1,-1.4425504E-1,4.9496797E-1,1.6301611E-1,-1.3569973E-1,-7.8898627E-1,3.580457E-1,-3.3053893E-1,9.963791E-1,4.517373E-1,2.0034945E-1,-1.7052977E-1,-3.664799E-1,3.8843773E-2,-9.478259E-1,-5.601248E-1,1.2547718E0,3.0618194E-1,-4.701886E-1,6.037252E-2,1.1661192E0,5.156422E-1,3.1458676E-1,5.651868E-1,9.099692E-1,1.8077381E-1,-2.922946E-1,3.6481512E-1,-7.095792E-3,-5.784515E-1,-1.8124157E-1,6.7796403E-1,1.5639448E-1,-9.807492E-1,-6.352147E-1,-2.5733468E-1,9.2889464E-1,8.231265E-2,-5.887206E-1,3.5211977E-1,-5.757424E-1,-1.3100982E-1,3.05253E-1,-1.00852385E-1,1.3336058E0,7.3585194E-1,1.0229132E0,1.6685931E-1,4.3490785E-1,1.2989551E-1,6.1709476E-1,-4.8952308E-2,1.5870605E-1,9.820573E-1,2.9513812E-1,8.4808044E-2,1.6175894E-1,-4.0882716E-1,1.0157791E0,2.1428065E-1,-2.3350287E-2,2.50689E-2,-3.9986584E-2,8.77082E-3,5.3243507E-3,-2.8994566E-2,4.5259383E-2,-7.7282375E-4,-4.3686695E-2,3.1149853E-2,-3.5130396E-2,-5.3391654E-2,-2.9439738E-2,-7.600277E-2,-4.753661E-2,-4.1269357E-3,7.2454356E-2,1.627856E-2,-3.3118208E-3,-5.1725447E-2,1.1728205E-2,3.334383E-2,-2.2524308E-2,-3.8656678E-2,8.59286E-3,-1.6962765E-2,2.166979E-2,-1.1396162E-2,-2.682286E-2,3.1719909E-3,7.1601294E-2,3.432167E-2,4.7330245E-2,5.891024E-3,6.454333E-2,2.7568636E-2,-1.6449433E-2,5.7306964E-2,2.8165633E-2,1.0483317E-2,-3.7791613E-2,1.3793535E-2,3.359308E-2,1.2039848E-2,1.3943321E-2,-4.352694E-2,3.3070937E-2,-2.6048908E-2,4.017336E-2,5.9034836E-2,8.954637E-3,2.2667293E-2,6.1087706E-3,-1.2171029E-2,-2.1242423E-2,1.8068317E-2,1.5706668E-3,-2.6244873E-2,6.708863E-2,8.777552E-3,-4.9882927E-3,3.7486758E-2],"categories":[],"categories_nodes":[],"categories_segments":[],"categories_sizes":[],"default_left":[0,0,0,0,0,0,0,0,0,0,0,0,0,0,0,0,0,0,0,0,0,0,0,0,0,0,0,0,0,0,0,0,0,0,0,0,0,0,0,0,0,0,0,0,0,0,0,0,0,0,0,0,0,0,0,0,0,0,0,0,0,0,0,0,0,0,0,0,0,0,0,0,0,0,0,0,0,0,0,0,0,0,0,0,0,0,0,0,0,0,0,0,0,0,0,0,0,0,0,0,0,0,0,0,0,0,0,0,0,0,0,0,0,0,0,0,0,0,0,0,0,0,0,0,0],"id":4,"left_children":[1,3,5,7,9,11,13,15,17,19,21,23,25,27,29,31,33,35,37,39,41,43,45,47,49,51,53,55,57,59,61,63,65,67,69,71,73,75,77,79,-1,81,83,85,87,89,91,93,95,97,99,101,103,105,107,109,111,113,115,117,119,121,123,-1,-1,-1,-1,-1,-1,-1,-1,-1,-1,-1,-1,-1,-1,-1,-1,-1,-1,-1,-1,-1,-1,-1,-1,-1,-1,-1,-1,-1,-1,-1,-1,-1,-1,-1,-1,-1,-1,-1,-1,-1,-1,-1,-1,-1,-1,-1,-1,-1,-1,-1,-1,-1,-1,-1,-1,-1,-1,-1,-1,-1,-1],"loss_changes":[9.562E2,2.8734375E2,1.2248306E2,1.3984003E2,2.501616E2,2.9628937E1,6.974843E1,1.686623E1,5.5182983E1,3.325969E1,1.064713E2,8.318771E0,1.9728119E1,6.978323E1,3.68776E1,1.3727407E1,3.3755806E1,3.299115E1,1.4168457E1,3.4754639E0,2.8374855E1,5.1361908E1,2.0328094E1,4.7835083E0,5.193389E0,1.28640175E1,2.2310455E1,7.1515274E0,5.3768646E1,2.441193E1,1.006891E1,1.6109371E1,1.9051708E1,2.0553238E1,9.697403E0,1.3529027E1,2.0498108E1,1.9823212E1,1.5307041E1,6.967352E0,0E0,7.81083E0,2.39814E1,2.6735931E1,2.1646889E1,1.4060495E1,2.2273737E1,2.6062546E0,3.0985842E0,8.243675E-1,9.680847E0,1.0051994E1,3.0047703E1,1.3120728E1,1.51624775E1,4.7887006E0,3.412056E0,4.09691E1,3.2734497E1,1.1240648E1,1.8740665E1,5.091511E0,1.4624592E1,0E0,0E0,0E0,0E0,0E0,0E0,0E0,0E0,0E0,0E0,0E0,0E0,0E0,0E0,0E0,0E0,0E0,0E0,0E0,0E0,0E0,0E0,0E0,0E0,0E0,0E0,0E0,0E0,0E0,0E0,0E0,0E0,0E0,0E0,0E0,0E0,0E0,0E0,0E0,0E0,0E0,0E0,0E0,0E0,0E0,0E0,0E0,0E0,0E0,0E0,0E0,0E0,0E0,0E0,0E0,0E0,0E0,0E0,0E0,0E0,0E0,0E0],"parents":[2147483647,0,0,1,1,2,2,3,3,4,4,5,5,6,6,7,7,8,8,9,9,10,10,11,11,12,12,13,13,14,14,15,15,16,16,17,17,18,18,19,19,20,20,21,21,22,22,23,23,24,24,25,25,26,26,27,27,28,28,29,29,30,30,31,31,32,32,33,33,34,34,35,35,36,36,37,37,38,38,39,39,41,41,42,42,43,43,44,44,45,45,46,46,47,47,48,48,49,49,50,50,51,51,52,52,53,53,54,54,55,55,56,56,57,57,58,58,59,59,60,60,61,61,62,62],"right_children":[2,4,6,8,10,12,14,16,18,20,22,24,26,28,30,32,34,36,38,40,42,44,46,48,50,52,54,56,58,60,62,64,66,68,70,72,74,76,78,80,-1,82,84,86,88,90,92,94,96,98,100,102,104,106,108,110,112,114,116,118,120,122,124,-1,-1,-1,-1,-1,-1,-1,-1,-1,-1,-1,-1,-1,-1,-1,-1,-1,-1,-1,-1,-1,-1,-1,-1,-1,-1,-1,-1,-1,-1,-1,-1,-1,-1,-1,-1,-1,-1,-1,-1,-1,-1,-1,-1,-1,-1,-1,-1,-1,-1,-1,-1,-1,-1,-1,-1,-1,-1,-1,-1,-1,-1],"split_conditions":[3.04E2,1.1E1,1.3E1,4E1,1.5E1,3.2E1,5.8E1,2E0,6.121E1,7.4E1,1E0,1E0,2.3E0,2E0,1.6E0,3E-1,2.1E1,-2.46E1,3.17E1,4.8E1,1.3E1,8.2E1,7.37E1,5E1,1E0,1.23E1,1.392E3,-4E-1,3.6E1,-5.7E0,2.4E0,3.131E1,1E0,1E0,2.55E2,-5.19E1,1.1362078E-3,5.534E2,4E1,1.2E1,8.231265E-2,1E0,8.3E1,2.7E1,2.2E1,5.2E1,5.3E0,4.7E0,3.031E1,0E0,4.1E1,1E0,1.3E0,3.61E2,1.2E1,5.02E2,2.6E1,3.33E1,7.6E1,1E0,1.5E1,9.7E0,7.7E0,-2.3350287E-2,2.50689E-2,-3.9986584E-2,8.77082E-3,5.3243507E-3,-2.8994566E-2,4.5259383E-2,-7.7282375E-4,-4.3686695E-2,3.1149853E-2,-3.5130396E-2,-5.3391654E-2,-2.9439738E-2,-7.600277E-2,-4.753661E-2,-4.1269357E-3,7.2454356E-2,1.627856E-2,-3.3118208E-3,-5.1725447E-2,1.1728205E-2,3.334383E-2,-2.2524308E-2,-3.8656678E-2,8.59286E-3,-1.6962765E-2,2.166979E-2,-1.1396162E-2,-2.682286E-2,3.1719909E-3,7.1601294E-2,3.432167E-2,4.7330245E-2,5.891024E-3,6.454333E-2,2.7568636E-2,-1.6449433E-2,5.7306964E-2,2.8165633E-2,1.0483317E-2,-3.7791613E-2,1.3793535E-2,3.359308E-2,1.2039848E-2,1.3943321E-2,-4.352694E-2,3.3070937E-2,-2.6048908E-2,4.017336E-2,5.9034836E-2,8.954637E-3,2.2667293E-2,6.1087706E-3,-1.2171029E-2,-2.1242423E-2,1.8068317E-2,1.5706668E-3,-2.6244873E-2,6.708863E-2,8.777552E-3,-4.9882927E-3,3.7486758E-2],"split_indices":[26,21,21,2,21,1,27,22,0,1,30,61,8,1,7,11,2,7,18,27,26,4,16,27,57,17,1,7,2,7,7,0,29,54,26,7,71,13,27,21,0,39,4,21,21,27,8,16,0,7,2,35,18,26,21,26,21,0,2,35,1,14,18,0,0,0,0,0,0,0,0,0,0,0,0,0,0,0,0,0,0,0,0,0,0,0,0,0,0,0,0,0,0,0,0,0,0,0,0,0,0,0,0,0,0,0,0,0,0,0,0,0,0,0,0,0,0,0,0,0,0,0,0,0,0],"split_type":[0,0,0,0,0,0,0,0,0,0,0,0,0,0,0,0,0,0,0,0,0,0,0,0,0,0,0,0,0,0,0,0,0,0,0,0,0,0,0,0,0,0,0,0,0,0,0,0,0,0,0,0,0,0,0,0,0,0,0,0,0,0,0,0,0,0,0,0,0,0,0,0,0,0,0,0,0,0,0,0,0,0,0,0,0,0,0,0,0,0,0,0,0,0,0,0,0,0,0,0,0,0,0,0,0,0,0,0,0,0,0,0,0,0,0,0,0,0,0,0,0,0,0,0,0],"sum_hessian":[1.1604325E4,4.620214E3,6.9841113E3,1.94897E3,2.671244E3,1.3866439E3,5.597468E3,4.1735898E2,1.531611E3,7.224063E2,1.9488375E3,1.0831408E2,1.2783298E3,5.034376E3,5.6309155E2,1.792527E2,2.381063E2,9.022615E2,6.293495E2,3.8229164E1,6.841771E2,1.435732E3,5.1310547E2,7.899616E1,2.9317919E1,5.8042255E2,6.979073E2,1.3392947E2,4.900447E3,4.5911853E2,1.0397304E2,6.6885735E1,1.1236697E2,1.7764832E2,6.045797E1,2.6014269E1,8.762472E2,5.0340955E2,1.2593995E2,2.2703257E1,1.5525907E1,3.282897E1,6.5134814E2,1.0944402E3,3.4129187E2,2.0334956E2,3.097559E2,5.535075E1,2.3645409E1,1.1157542E1,1.8160378E1,3.5063748E2,2.2978508E2,6.435119E2,5.4395367E1,1.2006436E1,1.2192304E2,2.2349436E3,2.665503E3,9.368794E1,3.654306E2,1.8448296E1,8.552474E1,3.516283E1,3.1722906E1,8.682167E1,2.5545294E1,1.0360412E2,7.40442E1,4.5306355E1,1.5151616E1,7.8378773E0,1.8176392E1,2.1109363E2,6.6515356E2,4.7989886E2,2.351069E1,2.4462124E1,1.0147783E2,1.1438774E1,1.12644825E1,1.5643113E1,1.718586E1,4.7550232E2,1.7584584E2,6.71571E2,4.228692E2,1.3912569E2,2.0216617E2,1.640977E2,3.9251865E1,8.421164E1,2.2554424E2,4.6991657E1,8.359093E0,1.7236126E1,6.4092817E0,6.0066867E0,5.1508555E0,1.2496804E1,5.6635733E0,2.2236919E2,1.2826828E2,3.192107E1,1.9786401E2,5.6106793E2,8.2444E1,3.935359E1,1.50417795E1,6.9171786E0,5.0892577E0,6.685804E1,5.5064995E1,1.2904963E3,9.444474E2,2.393627E3,2.71876E2,2.3499386E1,7.018856E1,7.639667E1,2.8903394E2,1.2861391E1,5.586904E0,5.4420532E1,3.1104208E1],"tree_param":{"num_deleted":"0","num_feature":"72","num_nodes":"125","size_leaf_vector":"1"}},{"base_weights":[-1.8197946E-3,-5.3174543E-1,1.1577971E-1,-2.082899E-1,-6.9072104E-1,4.74295E-1,4.005436E-2,6.4339024E-1,-2.5353405E-1,-4.2878568E-1,-8.361779E-1,1.1174958E0,4.280664E-1,3.432317E-1,-1.1409521E-2,9.6515256E-1,-1.4139714E-2,-4.2152938E-1,6.7945026E-2,-1.5912731E-1,-5.7901007E-1,-1.0848409E0,-6.908965E-1,1.174927E0,2.1262446E-2,4.0428764E-1,1.2497528E0,2.0370206E-1,5.361247E-1,-3.9871998E-2,5.3167474E-1,7.377765E-2,6.3035524E-1,7.0095783E-1,-4.784197E-1,-9.115547E-1,1.671983E-1,1.960659E-2,-7.9709417E-1,-6.27511E-1,4.0978456E-1,5.155263E-2,-1.1394209E0,-5.9183854E-1,-1.0435338E0,1.0610526E0,8.046767E-2,4.3152317E-1,-5.094649E-2,1.4795077E0,4.671417E-1,3.059407E-1,4.2726886E-3,-9.051682E-1,5.7710826E-1,7.465199E-2,-1.6193971E-1,6.5707904E-1,2.0792526E-1,1.3426577E-2,5.182987E-2,5.423927E-2,1.8837163E-2,-2.667723E-2,1.1778325E-2,-7.3514156E-2,1.5795542E-2,2.2710913E-3,3.4047063E-2,-5.4563913E-3,2.2714872E-2,-2.6328544E-4,-5.9093412E-2,-3.5233505E-2,4.9414732E-3,-9.773841E-3,4.9230788E-2,-2.7862681E-2,-6.0069203E-2,-3.9093792E-2,-1.8961981E-2,-5.7333328E-2,-5.2598775E-3,5.9605677E-2,3.2247525E-2,1.748365E-2,3.0197943E-2,4.4333516E-3,-7.244251E-2,7.9381734E-2,4.0019926E-2,1.1637724E-2,3.1054297E-2,1.1391368E-2,4.001702E-2,-6.8852264E-3,1.3157317E-2,2.0149851E-2,-9.0188324E-2,3.0588223E-2,-4.575669E-2,8.051864E-4,1.71493E-2,-1.25162965E-2,3.4797352E-3,2.7258037E-2,5.1936038E-2,-5.120036E-4,3.864482E-2],"categories":[],"categories_nodes":[],"categories_segments":[],"categories_sizes":[],"default_left":[0,0,0,0,0,0,0,0,0,0,0,0,0,0,0,0,0,0,0,0,0,0,0,0,0,0,0,0,0,0,0,0,0,0,0,0,0,0,0,0,0,0,0,0,0,0,0,0,0,0,0,0,0,0,0,0,0,0,0,0,0,0,0,0,0,0,0,0,0,0,0,0,0,0,0,0,0,0,0,0,0,0,0,0,0,0,0,0,0,0,0,0,0,0,0,0,0,0,0,0,0,0,0,0,0,0,0,0,0],"id":5,"left_children":[1,3,5,7,9,11,13,15,17,19,21,23,25,27,29,31,-1,33,35,37,39,41,43,45,-1,47,49,51,53,55,57,-1,59,61,63,65,67,69,71,73,75,-1,77,79,81,83,-1,85,87,89,91,93,95,97,99,101,103,105,107,-1,-1,-1,-1,-1,-1,-1,-1,-1,-1,-1,-1,-1,-1,-1,-1,-1,-1,-1,-1,-1,-1,-1,-1,-1,-1,-1,-1,-1,-1,-1,-1,-1,-1,-1,-1,-1,-1,-1,-1,-1,-1,-1,-1,-1,-1,-1,-1,-1,-1],"loss_changes":[7.2428046E2,1.0839368E2,2.5820355E2,2.70204E1,5.3544067E1,4.883777E1,1.2254512E2,1.083479E1,3.581061E1,2.045346E1,3.207379E1,3.8970795E0,2.9759613E1,3.0566254E1,1.0382012E2,3.6033134E0,0E0,2.8132187E1,2.2343185E1,2.0863878E1,1.5859901E1,3.9667908E1,1.9511963E1,3.3161926E0,0E0,1.87052E1,7.0562363E0,1.3516184E1,2.8744507E1,8.922526E1,1.344294E1,0E0,2.3331351E0,2.2547379E0,1.6454872E1,1.4973879E1,1.29882E1,8.096549E0,1.2192261E1,1.7472801E1,5.695629E0,0E0,1.1069E1,1.79729E1,1.19823E1,3.7791367E0,0E0,1.9857697E1,1.6904655E1,1.1412048E0,2.610042E-1,1.6743153E1,8.331691E0,1.6713333E1,2.4616821E1,5.1732872E1,6.324012E1,9.711548E0,1.1698719E1,0E0,0E0,0E0,0E0,0E0,0E0,0E0,0E0,0E0,0E0,0E0,0E0,0E0,0E0,0E0,0E0,0E0,0E0,0E0,0E0,0E0,0E0,0E0,0E0,0E0,0E0,0E0,0E0,0E0,0E0,0E0,0E0,0E0,0E0,0E0,0E0,0E0,0E0,0E0,0E0,0E0,0E0,0E0,0E0,0E0,0E0,0E0,0E0,0E0,0E0],"parents":[2147483647,0,0,1,1,2,2,3,3,4,4,5,5,6,6,7,7,8,8,9,9,10,10,11,11,12,12,13,13,14,14,15,15,17,17,18,18,19,19,20,20,21,21,22,22,23,23,25,25,26,26,27,27,28,28,29,29,30,30,32,32,33,33,34,34,35,35,36,36,37,37,38,38,39,39,40,40,42,42,43,43,44,44,45,45,47,47,48,48,49,49,50,50,51,51,52,52,53,53,54,54,55,55,56,56,57,57,58,58],"right_children":[2,4,6,8,10,12,14,16,18,20,22,24,26,28,30,32,-1,34,36,38,40,42,44,46,-1,48,50,52,54,56,58,-1,60,62,64,66,68,70,72,74,76,-1,78,80,82,84,-1,86,88,90,92,94,96,98,100,102,104,106,108,-1,-1,-1,-1,-1,-1,-1,-1,-1,-1,-1,-1,-1,-1,-1,-1,-1,-1,-1,-1,-1,-1,-1,-1,-1,-1,-1,-1,-1,-1,-1,-1,-1,-1,-1,-1,-1,-1,-1,-1,-1,-1,-1,-1,-1,-1,-1,-1,-1,-1],"split_conditions":[1.1E1,4.3E1,1.3E1,1E0,1E0,3.2E1,1E0,3E-1,3.81E1,-5.1E0,4.999E1,3E0,1E0,2.9E1,1E0,1.999E1,-1.4139714E-2,2E0,-6.7E1,1.87E1,3.53E1,-3.07E1,9.520638E-3,2E0,2.1262446E-2,1.456E3,1.9E0,4.1E1,1E0,2E0,3E0,7.377765E-2,7.3E0,3.1539563E-3,1.9E0,8.47E2,7.731E1,2E0,1.5E0,6.14E1,1.23E1,5.155263E-2,7.7E1,7.54E2,4.87E1,7.8946855E-3,8.046767E-2,2.8E1,1.97E1,3E0,5.1E2,2.8E1,1E-1,3E-1,2.755E2,4.8E1,1E0,4.1E0,8.8E1,1.3426577E-2,5.182987E-2,5.423927E-2,1.8837163E-2,-2.667723E-2,1.1778325E-2,-7.3514156E-2,1.5795542E-2,2.2710913E-3,3.4047063E-2,-5.4563913E-3,2.2714872E-2,-2.6328544E-4,-5.9093412E-2,-3.5233505E-2,4.9414732E-3,-9.773841E-3,4.9230788E-2,-2.7862681E-2,-6.0069203E-2,-3.9093792E-2,-1.8961981E-2,-5.7333328E-2,-5.2598775E-3,5.9605677E-2,3.2247525E-2,1.748365E-2,3.0197943E-2,4.4333516E-3,-7.244251E-2,7.9381734E-2,4.0019926E-2,1.1637724E-2,3.1054297E-2,1.1391368E-2,4.001702E-2,-6.8852264E-3,1.3157317E-2,2.0149851E-2,-9.0188324E-2,3.0588223E-2,-4.575669E-2,8.051864E-4,1.71493E-2,-1.25162965E-2,3.4797352E-3,2.7258037E-2,5.1936038E-2,-5.120036E-4,3.864482E-2],"split_indices":[21,2,21,31,45,1,31,11,0,7,0,22,40,21,40,0,0,1,7,15,9,7,71,24,0,1,7,2,2,25,25,0,13,71,5,1,0,25,11,7,8,0,1,1,7,71,0,4,11,11,1,10,7,10,13,4,30,7,4,0,0,0,0,0,0,0,0,0,0,0,0,0,0,0,0,0,0,0,0,0,0,0,0,0,0,0,0,0,0,0,0,0,0,0,0,0,0,0,0,0,0,0,0,0,0,0,0,0,0],"split_type":[0,0,0,0,0,0,0,0,0,0,0,0,0,0,0,0,0,0,0,0,0,0,0,0,0,0,0,0,0,0,0,0,0,0,0,0,0,0,0,0,0,0,0,0,0,0,0,0,0,0,0,0,0,0,0,0,0,0,0,0,0,0,0,0,0,0,0,0,0,0,0,0,0,0,0,0,0,0,0,0,0,0,0,0,0,0,0,0,0,0,0,0,0,0,0,0,0,0,0,0,0,0,0,0,0,0,0,0,0],"sum_hessian":[1.1620157E4,2.1097415E3,9.510416E3,6.9598456E2,1.4137568E3,1.6575626E3,7.8528535E3,3.4441116E1,6.6154346E2,5.061826E2,9.075743E2,1.0959139E2,1.5479713E3,1.1387467E3,6.7141064E3,2.5529821E1,8.911295E0,4.342869E2,2.2725658E2,1.8183719E2,3.2434537E2,3.32316E2,5.7525824E2,1.00551994E2,9.039404E0,1.5058845E3,4.2086746E1,6.6196716E2,4.767796E2,6.380631E3,3.3347562E2,8.763109E0,1.6766712E1,2.040284E1,4.1388406E2,2.015629E1,2.0710028E2,1.427995E2,3.903769E1,3.095282E2,1.4817171E1,7.9067197E0,3.244093E2,4.511935E2,1.24064735E2,8.239623E1,1.815576E1,1.420926E3,8.495846E1,3.1846836E1,1.023991E1,4.3726605E2,2.2470111E2,1.25995035E1,4.6418008E2,3.292239E3,3.088392E3,2.396267E2,9.384892E1,9.746716E0,7.019998E0,8.268332E0,1.2134508E1,3.8445413E2,2.9429916E1,1.37153845E1,6.440906E0,1.6829616E2,3.8804127E1,1.1074974E2,3.2049767E1,1.3097652E1,2.5940039E1,2.7983157E2,2.9696636E1,7.539007E0,7.278164E0,3.2168404E1,2.922409E2,2.3682411E2,2.1436938E2,1.1157903E2,1.24857025E1,6.1241764E1,2.1154467E1,9.656078E2,4.5531827E2,7.809537E1,6.8630853E0,2.63186E1,5.528235E0,5.0551505E0,5.184759E0,3.7886725E2,5.8398815E1,1.454166E2,7.9284515E1,5.3551245E0,7.2443786E0,4.542212E2,9.958899E0,2.7034324E3,5.888066E2,2.2350864E3,8.5330554E2,1.8716739E2,5.2459305E1,6.841293E1,2.5435986E1],"tree_param":{"num_deleted":"0","num_feature":"72","num_nodes":"109","size_leaf_vector":"1"}},{"base_weights":[1.1288909E-3,-3.1404552E-1,2.1409103E-1,-5.5256826E-1,-1.3818525E-1,4.5195675E-1,1.5535659E-1,-1.1327042E-1,-6.590375E-1,3.29978E-1,-3.1553453E-1,9.4372904E-1,4.1202164E-1,8.2781017E-1,1.3408205E-1,-1.6753821E-1,8.6827385E-1,-7.9245186E-1,-4.7344154E-1,5.1704997E-1,5.7797004E-2,-4.2532536E-1,1.4495442E-3,1.1011022E0,4.1674888E-1,3.9280128E-1,1.2499777E0,9.244299E-1,-4.5575537E-2,1.6709514E-1,-1.7162226E-1,-4.256593E-1,5.839687E-3,1.2966597E0,-3.7802253E-3,-5.06483E-1,-9.297137E-1,-5.275138E-1,1.6092508E-1,-2.716986E-1,5.829964E-1,1.752234E-1,-8.0017036E-1,-4.4188473E-1,1.4021868E0,-6.2786795E-2,5.0594383E-1,1.173981E0,8.590419E-3,5.9331246E-2,6.226767E-2,1.4312771E-1,4.4978237E-1,2.5842128E-2,1.3925072E0,7.9441035E-1,1.3458426E0,-2.1094212E-2,2.0116324E-2,1.9050737E-1,-2.2846E-1,-2.779819E-1,2.864035E-1,2.4819365E-3,-3.7268814E-2,-1.0315566E-2,3.552468E-2,8.724957E-2,3.6386684E-2,3.0531887E-2,-2.7475644E-2,-4.251441E-2,-6.459345E-2,-2.4555003E-2,-7.4976794E-2,-1.4488772E-2,5.1479947E-2,4.489608E-3,-5.465318E-2,3.882227E-2,1.6602954E-2,1.8601619E-3,2.9710809E-2,-5.924788E-2,1.1219491E-2,-2.828507E-2,-1.1625064E-2,9.0674475E-2,3.9312094E-2,3.1083196E-3,-1.579394E-2,5.008923E-2,7.85405E-3,6.2387418E-2,1.8721733E-2,3.1991746E-2,-2.4479281E-2,-4.8133074E-3,2.3522973E-2,1.7861139E-2,3.1626083E-2,7.7328764E-2,4.170556E-2,2.890786E-2,5.0802674E-2,7.561217E-2,3.5533685E-2,1.3094231E-2,3.559564E-3,-4.0261587E-3,-3.7149835E-2,-1.55522E-2,3.2045845E-2,4.876583E-2,6.293252E-3],"categories":[],"categories_nodes":[],"categories_segments":[],"categories_sizes":[],"default_left":[0,0,0,0,0,0,0,0,0,0,0,0,0,0,0,0,0,0,0,0,0,0,0,0,0,0,0,0,0,0,0,0,0,0,0,0,0,0,0,0,0,0,0,0,0,0,0,0,0,0,0,0,0,0,0,0,0,0,0,0,0,0,0,0,0,0,0,0,0,0,0,0,0,0,0,0,0,0,0,0,0,0,0,0,0,0,0,0,0,0,0,0,0,0,0,0,0,0,0,0,0,0,0,0,0,0,0,0,0,0,0,0,0,0,0],"id":6,"left_children":[1,3,5,7,9,11,13,15,17,19,21,23,25,27,29,31,33,35,37,39,41,43,45,47,49,51,53,55,57,59,61,63,65,67,-1,69,71,73,75,77,79,81,83,85,87,89,91,93,-1,-1,95,97,99,-1,101,103,105,-1,-1,107,109,111,113,-1,-1,-1,-1,-1,-1,-1,-1,-1,-1,-1,-1,-1,-1,-1,-1,-1,-1,-1,-1,-1,-1,-1,-1,-1,-1,-1,-1,-1,-1,-1,-1,-1,-1,-1,-1,-1,-1,-1,-1,-1,-1,-1,-1,-1,-1,-1,-1,-1,-1,-1,-1],"loss_changes":[7.7485297E2,1.9518646E2,9.617853E1,9.230963E1,2.2268759E2,2.639325E1,7.8951965E1,2.0734814E1,3.8987183E1,3.749726E1,6.7683136E1,7.971237E0,1.985176E1,1.4327721E1,5.4105133E1,1.6432177E1,8.351904E0,3.5773804E1,2.29747E1,2.2872208E1,3.0499933E1,4.433319E1,1.6277578E1,5.0582886E0,6.744517E0,1.7522736E1,2.1918373E0,7.2851105E0,3.1725028E0,4.4833374E1,2.5544746E1,2.245504E1,3.3124504E1,2.3254585E0,0E0,1.483638E1,1.6813293E1,2.1036102E1,2.1118534E1,1.030468E1,1.9319855E1,1.535389E1,1.4638998E1,3.7000336E1,1.9209709E0,1.411083E1,9.656082E0,3.7703476E0,0E0,0E0,6.102335E0,1.8160252E1,1.6790375E1,0E0,6.6615295E-1,5.1145477E0,2.5727577E0,0E0,0E0,3.8873962E1,2.0547188E1,1.3102947E1,1.0826628E1,0E0,0E0,0E0,0E0,0E0,0E0,0E0,0E0,0E0,0E0,0E0,0E0,0E0,0E0,0E0,0E0,0E0,0E0,0E0,0E0,0E0,0E0,0E0,0E0,0E0,0E0,0E0,0E0,0E0,0E0,0E0,0E0,0E0,0E0,0E0,0E0,0E0,0E0,0E0,0E0,0E0,0E0,0E0,0E0,0E0,0E0,0E0,0E0,0E0,0E0,0E0,0E0],"parents":[2147483647,0,0,1,1,2,2,3,3,4,4,5,5,6,6,7,7,8,8,9,9,10,10,11,11,12,12,13,13,14,14,15,15,16,16,17,17,18,18,19,19,20,20,21,21,22,22,23,23,24,24,25,25,26,26,27,27,28,28,29,29,30,30,31,31,32,32,33,33,35,35,36,36,37,37,38,38,39,39,40,40,41,41,42,42,43,43,44,44,45,45,46,46,47,47,50,50,51,51,52,52,54,54,55,55,56,56,59,59,60,60,61,61,62,62],"right_children":[2,4,6,8,10,12,14,16,18,20,22,24,26,28,30,32,34,36,38,40,42,44,46,48,50,52,54,56,58,60,62,64,66,68,-1,70,72,74,76,78,80,82,84,86,88,90,92,94,-1,-1,96,98,100,-1,102,104,106,-1,-1,108,110,112,114,-1,-1,-1,-1,-1,-1,-1,-1,-1,-1,-1,-1,-1,-1,-1,-1,-1,-1,-1,-1,-1,-1,-1,-1,-1,-1,-1,-1,-1,-1,-1,-1,-1,-1,-1,-1,-1,-1,-1,-1,-1,-1,-1,-1,-1,-1,-1,-1,-1,-1,-1,-1],"split_conditions":[3.06E2,1.1E1,1.3E1,3.6E1,1.5E1,3.2E1,2E0,1.01E3,6.48E2,4E0,1E0,1E0,1E0,3E-1,5.8E1,2E0,9.9E-1,-1.8E0,3E0,2E1,2.653E2,6E0,1E0,2.8E0,1.1E1,4.2E1,6.7E0,2E0,3E1,7.6E1,1.6E0,4E0,2.1E1,7.8E1,-3.7802253E-3,4.5E1,7E0,3.2989208E-2,2.05E2,1E-1,1.3E1,8.3E1,2.2E0,3.6E1,2E0,1.5E0,1.3E0,6E1,8.590419E-3,5.9331246E-2,3.26E2,3.3E0,2.5E1,2.5842128E-2,4.9E1,2E1,4E0,-2.1094212E-2,2.0116324E-2,1E0,2.803E2,1E0,2.4E0,2.4819365E-3,-3.7268814E-2,-1.0315566E-2,3.552468E-2,8.724957E-2,3.6386684E-2,3.0531887E-2,-2.7475644E-2,-4.251441E-2,-6.459345E-2,-2.4555003E-2,-7.4976794E-2,-1.4488772E-2,5.1479947E-2,4.489608E-3,-5.465318E-2,3.882227E-2,1.6602954E-2,1.8601619E-3,2.9710809E-2,-5.924788E-2,1.1219491E-2,-2.828507E-2,-1.1625064E-2,9.0674475E-2,3.9312094E-2,3.1083196E-3,-1.579394E-2,5.008923E-2,7.85405E-3,6.2387418E-2,1.8721733E-2,3.1991746E-2,-2.4479281E-2,-4.8133074E-3,2.3522973E-2,1.7861139E-2,3.1626083E-2,7.7328764E-2,4.170556E-2,2.890786E-2,5.0802674E-2,7.561217E-2,3.5533685E-2,1.3094231E-2,3.559564E-3,-4.0261587E-3,-3.7149835E-2,-1.55522E-2,3.2045845E-2,4.876583E-2,6.293252E-3],"split_indices":[26,21,21,2,21,1,1,1,1,50,30,61,40,16,27,22,3,7,22,26,16,22,40,7,2,28,10,25,21,2,7,50,2,4,0,1,15,71,16,5,21,4,5,4,45,11,15,28,0,0,26,8,4,0,4,2,50,0,0,35,16,40,7,0,0,0,0,0,0,0,0,0,0,0,0,0,0,0,0,0,0,0,0,0,0,0,0,0,0,0,0,0,0,0,0,0,0,0,0,0,0,0,0,0,0,0,0,0,0,0,0,0,0,0,0],"split_type":[0,0,0,0,0,0,0,0,0,0,0,0,0,0,0,0,0,0,0,0,0,0,0,0,0,0,0,0,0,0,0,0,0,0,0,0,0,0,0,0,0,0,0,0,0,0,0,0,0,0,0,0,0,0,0,0,0,0,0,0,0,0,0,0,0,0,0,0,0,0,0,0,0,0,0,0,0,0,0,0,0,0,0,0,0,0,0,0,0,0,0,0,0,0,0,0,0,0,0,0,0,0,0,0,0,0,0,0,0,0,0,0,0,0,0],"sum_hessian":[1.1542253E4,4.6540273E3,6.8882256E3,1.9742166E3,2.6798108E3,1.36272E3,5.525506E3,3.8553644E2,1.58868E3,7.360196E2,1.9437911E3,1.0065041E2,1.2620696E3,1.6828792E2,5.357218E3,3.6612347E2,1.9412987E1,9.223706E2,6.6630945E2,4.3567645E2,3.0034317E2,1.4434834E3,5.003077E2,7.666602E1,2.398439E1,1.2352062E3,2.6863384E1,1.5147256E2,1.6815353E1,4.835486E3,5.2173206E2,1.465251E2,2.1959836E2,1.3095669E1,6.3173184E0,3.006636E2,6.2170703E2,6.141305E2,5.2178947E1,3.3375156E1,4.0230127E2,2.6488522E2,3.5457962E1,1.4312726E3,1.2210767E1,4.4457617E2,5.5731537E1,7.084666E1,5.8193655E0,6.821562E0,1.7162828E1,2.3017258E2,1.00503357E3,5.125474E0,2.173791E1,1.17962425E2,3.3510143E1,9.169559E0,7.645795E0,4.5657646E3,2.6972134E2,4.2372955E2,9.800252E1,5.9265095E1,8.726001E1,1.6932631E2,5.0272057E1,6.1679573E0,6.927712E0,1.0662318E1,2.9000128E2,5.1262854E2,1.09078514E2,5.934057E2,2.0724844E1,3.4793297E1,1.7385649E1,2.3793905E1,9.58125E0,2.2599011E2,1.7631117E2,2.0006929E2,6.481592E1,2.5663237E1,9.794724E0,8.9834454E2,5.329281E2,6.155882E0,6.054885E0,2.981379E2,1.4643828E2,2.224418E1,3.3487354E1,6.434913E1,6.4975286E0,8.308138E0,8.854691E0,1.3335176E2,9.6820816E1,6.6908765E2,3.3594595E2,1.5650168E1,6.087742E0,6.153365E1,5.6428776E1,2.545945E1,8.050693E0,2.8560342E3,1.7097303E3,2.1038817E2,5.9333183E1,4.0965173E2,1.4077825E1,1.7562386E1,8.044013E1],"tree_param":{"num_deleted":"0","num_feature":"72","num_nodes":"115","size_leaf_vector":"1"}},{"base_weights":[8.0908474E-4,-4.7292545E-1,1.0577368E-1,-6.065194E-1,-2.1249701E-1,4.7048864E-1,2.890962E-2,-1.8619247E-1,-6.5728784E-1,1.13560386E-1,-3.5200906E-1,5.743286E-1,2.1359219E-1,3.0758118E-3,5.276661E-1,-3.3099744E-1,7.644429E-1,-7.7041465E-1,-4.019186E-1,4.802589E-1,-9.752134E-2,1.7664E-1,-4.7724378E-1,9.609005E-1,5.19882E-1,2.6794782E-1,-6.5145653E-1,2.611002E-1,-4.061769E-2,7.0640343E-1,2.2161484E-1,1.106725E-1,-5.799508E-1,9.1382135E-3,6.344204E-2,-5.7035244E-1,-8.749064E-1,-6.201704E-1,-2.1001719E-1,1.0325851E0,1.8518889E-1,-2.4427614E-1,8.414264E-1,-2.1151643E-1,5.340311E-1,-5.79675E-1,5.2378286E-2,1.0683141E0,5.8056104E-1,8.1902677E-1,4.3874955E-1,8.863935E-1,1.9976011E-1,-2.7586398E-1,-8.568966E-2,3.3379406E-1,4.9307853E-2,2.0988849E-1,-9.450655E-2,8.797096E-1,2.017939E-1,4.422328E-2,8.892398E-1,2.5448665E-2,-2.8379401E-2,-2.1984058E-2,-6.571415E-2,-1.46325575E-2,-3.6142185E-2,-4.602068E-2,-1.8646663E-2,-1.9525452E-2,-4.705192E-2,6.313386E-4,-3.3634827E-2,1.9605398E-2,6.717096E-2,2.0116823E-2,-3.65305E-2,-3.6317722E-3,-4.7445912E-2,6.544775E-2,2.116663E-2,-3.3884753E-2,1.5765551E-2,-3.3405773E-2,3.6761533E-2,-9.828497E-4,-3.619277E-2,1.3192686E-2,-4.5722675E-2,4.7997482E-2,8.61887E-2,-7.7362633E-3,4.164765E-2,5.2697618E-2,3.1279545E-2,2.5590403E-2,1.2869607E-3,5.0856333E-2,1.5891215E-2,-1.3025256E-2,1.3378905E-2,-7.0168555E-2,1.4563876E-2,9.7832205E-3,2.445646E-2,-8.294372E-3,2.3078233E-2,4.36041E-2,4.6668425E-3,2.5839744E-2,-6.1654407E-3,5.042084E-2,2.7254751E-2,2.077176E-2,-1.3994934E-2,1.6269585E-2,-2.4656432E-2,7.8087725E-2,1.7336184E-2],"categories":[],"categories_nodes":[],"categories_segments":[],"categories_sizes":[],"default_left":[0,0,0,0,0,0,0,0,0,0,0,0,0,0,0,0,0,0,0,0,0,0,0,0,0,0,0,0,0,0,0,0,0,0,0,0,0,0,0,0,0,0,0,0,0,0,0,0,0,0,0,0,0,0,0,0,0,0,0,0,0,0,0,0,0,0,0,0,0,0,0,0,0,0,0,0,0,0,0,0,0,0,0,0,0,0,0,0,0,0,0,0,0,0,0,0,0,0,0,0,0,0,0,0,0,0,0,0,0,0,0,0,0,0,0,0,0,0,0,0,0],"id":7,"left_children":[1,3,5,7,9,11,13,15,17,19,21,23,25,27,29,31,33,35,37,39,41,43,45,47,49,51,53,55,57,59,61,63,65,-1,-1,67,69,71,73,75,77,79,81,83,85,87,89,91,93,95,97,99,101,103,-1,105,107,109,111,113,115,117,119,-1,-1,-1,-1,-1,-1,-1,-1,-1,-1,-1,-1,-1,-1,-1,-1,-1,-1,-1,-1,-1,-1,-1,-1,-1,-1,-1,-1,-1,-1,-1,-1,-1,-1,-1,-1,-1,-1,-1,-1,-1,-1,-1,-1,-1,-1,-1,-1,-1,-1,-1,-1,-1,-1,-1,-1,-1,-1],"loss_changes":[5.752852E2,7.287909E1,2.654862E2,2.946286E1,3.2474354E1,4.3852478E1,1.0080023E2,2.101236E1,3.541504E1,1.6643509E1,3.316036E1,2.419693E1,2.2561733E1,8.387858E1,2.0918198E1,1.453079E1,5.705556E0,1.7393188E1,1.585751E1,1.260273E1,1.907181E1,1.3488034E1,2.1957253E1,5.2496643E0,2.4655731E1,1.874385E1,1.0874845E1,1.657164E1,8.591223E1,2.1052345E1,1.6955395E1,1.3328287E1,8.105537E0,0E0,0E0,1.2345428E1,1.2457306E1,1.2756058E1,2.108871E1,4.8716793E0,1.0711595E1,1.4345756E1,3.1074142E0,1.1740625E1,1.270104E1,2.7338806E1,1.3821505E1,6.2187195E0,6.4074097E0,9.281052E0,2.4516495E1,2.967064E0,1.2724335E1,1.4606623E1,0E0,1.7111107E1,2.4605152E1,8.6879036E1,9.226936E1,7.219757E0,6.636444E0,1.7448818E1,1.0430244E1,0E0,0E0,0E0,0E0,0E0,0E0,0E0,0E0,0E0,0E0,0E0,0E0,0E0,0E0,0E0,0E0,0E0,0E0,0E0,0E0,0E0,0E0,0E0,0E0,0E0,0E0,0E0,0E0,0E0,0E0,0E0,0E0,0E0,0E0,0E0,0E0,0E0,0E0,0E0,0E0,0E0,0E0,0E0,0E0,0E0,0E0,0E0,0E0,0E0,0E0,0E0,0E0,0E0,0E0,0E0,0E0,0E0,0E0],"parents":[2147483647,0,0,1,1,2,2,3,3,4,4,5,5,6,6,7,7,8,8,9,9,10,10,11,11,12,12,13,13,14,14,15,15,16,16,17,17,18,18,19,19,20,20,21,21,22,22,23,23,24,24,25,25,26,26,27,27,28,28,29,29,30,30,31,31,32,32,35,35,36,36,37,37,38,38,39,39,40,40,41,41,42,42,43,43,44,44,45,45,46,46,47,47,48,48,49,49,50,50,51,51,52,52,53,53,55,55,56,56,57,57,58,58,59,59,60,60,61,61,62,62],"right_children":[2,4,6,8,10,12,14,16,18,20,22,24,26,28,30,32,34,36,38,40,42,44,46,48,50,52,54,56,58,60,62,64,66,-1,-1,68,70,72,74,76,78,80,82,84,86,88,90,92,94,96,98,100,102,104,-1,106,108,110,112,114,116,118,120,-1,-1,-1,-1,-1,-1,-1,-1,-1,-1,-1,-1,-1,-1,-1,-1,-1,-1,-1,-1,-1,-1,-1,-1,-1,-1,-1,-1,-1,-1,-1,-1,-1,-1,-1,-1,-1,-1,-1,-1,-1,-1,-1,-1,-1,-1,-1,-1,-1,-1,-1,-1,-1,-1,-1,-1,-1,-1],"split_conditions":[1.1E1,2E0,1.3E1,3E-1,1E0,4E0,1E0,2.8E0,8.28E2,-3.3E0,9.011303E-4,-2.11E2,2.717E2,1E0,3E0,1.31E2,3.9375476E-3,1E0,6.6E-1,3.88E2,2.75E2,9E0,7E1,1.121E3,1.06E2,8.8E1,1E0,3E0,-1.32E2,2.7E0,9.4E1,1E0,1E0,9.1382135E-3,6.344204E-2,3.27E1,1E0,1E0,2.4E2,-8.4E1,2.4E1,1.03E1,8E0,5E0,1.7630811E-4,2E0,8E0,1.63E1,1.308E3,1E0,8E0,4.6E1,2E0,1.14E2,-8.568966E-2,2.8E1,3.6E1,3.03E2,1.2E1,4E0,4E0,5.1E2,4.466472E-3,2.5448665E-2,-2.8379401E-2,-2.1984058E-2,-6.571415E-2,-1.46325575E-2,-3.6142185E-2,-4.602068E-2,-1.8646663E-2,-1.9525452E-2,-4.705192E-2,6.313386E-4,-3.3634827E-2,1.9605398E-2,6.717096E-2,2.0116823E-2,-3.65305E-2,-3.6317722E-3,-4.7445912E-2,6.544775E-2,2.116663E-2,-3.3884753E-2,1.5765551E-2,-3.3405773E-2,3.6761533E-2,-9.828497E-4,-3.619277E-2,1.3192686E-2,-4.5722675E-2,4.7997482E-2,8.61887E-2,-7.7362633E-3,4.164765E-2,5.2697618E-2,3.1279545E-2,2.5590403E-2,1.2869607E-3,5.0856333E-2,1.5891215E-2,-1.3025256E-2,1.3378905E-2,-7.0168555E-2,1.4563876E-2,9.7832205E-3,2.445646E-2,-8.294372E-3,2.3078233E-2,4.36041E-2,4.6668425E-3,2.5839744E-2,-6.1654407E-3,5.042084E-2,2.7254751E-2,2.077176E-2,-1.3994934E-2,1.6269585E-2,-2.4656432E-2,7.8087725E-2,1.7336184E-2],"split_indices":[21,22,21,17,45,50,40,5,1,7,71,6,16,31,24,1,71,45,3,1,6,21,4,1,1,1,52,15,6,9,4,35,67,0,0,17,60,39,17,6,6,7,21,15,71,23,45,8,1,57,45,27,18,4,0,21,4,1,1,6,50,1,71,0,0,0,0,0,0,0,0,0,0,0,0,0,0,0,0,0,0,0,0,0,0,0,0,0,0,0,0,0,0,0,0,0,0,0,0,0,0,0,0,0,0,0,0,0,0,0,0,0,0,0,0,0,0,0,0,0,0],"split_type":[0,0,0,0,0,0,0,0,0,0,0,0,0,0,0,0,0,0,0,0,0,0,0,0,0,0,0,0,0,0,0,0,0,0,0,0,0,0,0,0,0,0,0,0,0,0,0,0,0,0,0,0,0,0,0,0,0,0,0,0,0,0,0,0,0,0,0,0,0,0,0,0,0,0,0,0,0,0,0,0,0,0,0,0,0,0,0,0,0,0,0,0,0,0,0,0,0,0,0,0,0,0,0,0,0,0,0,0,0,0,0,0,0,0,0,0,0,0,0,0,0],"sum_hessian":[1.1567247E4,2.0974343E3,9.4698125E3,1.3854175E3,7.1201697E2,1.6474846E3,7.8223276E3,1.4980505E2,1.2356124E3,2.1341798E2,4.9859897E2,1.1723671E3,4.7511758E2,7.4380684E3,3.8425925E2,1.3056816E2,1.92369E1,8.548866E2,3.8072577E2,7.750258E1,1.359154E2,9.541527E1,4.031837E2,1.4268097E2,1.0296862E3,4.4767783E2,2.7439735E1,1.0764288E3,6.3616396E3,2.4176038E2,1.4249889E2,4.7266956E1,8.33012E1,9.566742E0,9.670159E0,2.955254E2,5.593612E2,1.7708882E2,2.0363696E2,2.6116674E1,5.1385906E1,1.1818351E2,1.7731897E1,4.5934616E1,4.9480648E1,3.3776413E2,6.541956E1,1.0984909E2,3.2831882E1,2.1774403E2,8.119421E2,4.3266056E1,4.0441177E2,2.1203014E1,6.2367196E0,8.009436E2,2.7548523E2,1.1257263E3,5.2359136E3,1.794021E2,6.2358276E1,1.1342696E2,2.9071918E1,2.9936613E1,1.7330345E1,7.12836E1,1.2017602E1,1.05790276E2,1.8973512E2,5.121022E2,4.7259007E1,1.04505806E2,7.258301E1,1.3813724E2,6.5499725E1,9.272353E0,1.6844322E1,4.1990173E1,9.395733E0,9.592149E1,2.2262018E1,7.3651433E0,1.0366755E1,2.4218128E1,2.1716488E1,6.761389E0,4.2719257E1,6.9387825E1,2.683763E2,5.427506E1,1.1144506E1,9.637959E1,1.3469496E1,8.488765E0,2.4343119E1,9.631816E1,1.21425865E2,6.8969995E2,1.2224212E2,3.4536118E1,8.729939E0,5.1570858E1,3.528409E2,6.602478E0,1.4600537E1,4.2514703E2,3.7579657E2,1.8139557E2,9.408965E1,1.6751271E2,9.582136E2,2.3483414E2,5.001079E3,1.281113E2,5.1290794E1,4.3293987E1,1.906429E1,7.472283E1,3.8704136E1,1.214187E1,1.6930048E1],"tree_param":{"num_deleted":"0","num_feature":"72","num_nodes":"121","size_leaf_vector":"1"}},{"base_weights":[-3.4860212E-3,-2.9123056E-1,1.8949926E-1,-5.623852E-1,-1.6242595E-1,8.191129E-1,1.7049669E-1,-2.047334E-1,-6.6219735E-1,-1.9994034E-1,3.836E-1,9.012128E-1,-1.1869779E-2,3.8081282E-1,1.0924237E-1,-1.2755685E-1,-7.74907E-1,-2.38105E-1,-7.4516034E-1,8.8729806E-2,-2.5914463E-1,5.8332443E-1,1.2499283E-1,9.4978976E-1,-1.5926011E-3,4.019199E-2,-5.381516E-1,9.088424E-1,3.1892413E-1,6.418832E-2,3.5194686E-1,3.6961907E-1,-2.2979799E-1,-2.5069177E-1,-1.381461E0,-9.9374145E-2,-8.171402E-1,-3.7650022E-1,-8.028544E-1,2.9571533E-1,-1.5892634E-1,-3.6181968E-1,-1.5354229E-3,3.7343657E-1,1.0643488E0,-5.141281E-1,3.171645E-1,1.1102046E0,6.623921E-1,-5.2656382E-2,3.598729E-3,-3.1121034E-2,1.0272572E0,4.7698376E-1,1.2813461E-1,1.5724595E-1,-6.4822584E-2,4.926863E-1,-6.4376667E-3,6.707303E-3,4.7762528E-2,-5.7848293E-2,-7.4848244E-3,-3.0677024E-2,3.8939252E-2,-8.448119E-2,-4.602442E-2,-5.242314E-2,6.649666E-4,-5.277986E-2,1.6387828E-3,-2.290246E-3,-3.479642E-2,-4.6022546E-2,-2.9230176E-2,1.0016334E-2,4.175097E-2,7.748799E-3,-2.100492E-2,4.261E-2,-1.905223E-2,-5.5825826E-2,1.4189694E-3,3.4975763E-2,-1.2578926E-2,5.995334E-2,1.2128088E-2,3.4650933E-2,-4.756023E-2,-7.537526E-3,2.7176097E-2,5.8676403E-2,3.8234916E-2,1.9547816E-2,4.9446788E-2,-3.153524E-2,4.007944E-2,3.9500736E-2,6.2347777E-2,3.5377156E-2,1.1906712E-2,9.091145E-3,-3.1468708E-2,1.7134491E-2,2.7550485E-3,9.055984E-3,-6.1994283E-3,-5.5614288E-5,2.8963495E-2,3.473922E-3,-5.8465164E-2],"categories":[],"categories_nodes":[],"categories_segments":[],"categories_sizes":[],"default_left":[0,0,0,0,0,0,0,0,0,0,0,0,0,0,0,0,0,0,0,0,0,0,0,0,0,0,0,0,0,0,0,0,0,0,0,0,0,0,0,0,0,0,0,0,0,0,0,0,0,0,0,0,0,0,0,0,0,0,0,0,0,0,0,0,0,0,0,0,0,0,0,0,0,0,0,0,0,0,0,0,0,0,0,0,0,0,0,0,0,0,0,0,0,0,0,0,0,0,0,0,0,0,0,0,0,0,0,0,0,0,0],"id":8,"left_children":[1,3,5,7,9,11,13,15,17,19,21,23,25,27,29,31,33,35,37,39,41,43,45,47,-1,-1,49,51,53,55,57,59,61,63,65,67,69,71,73,75,77,79,81,83,85,87,89,91,93,-1,-1,95,97,99,101,103,105,107,109,-1,-1,-1,-1,-1,-1,-1,-1,-1,-1,-1,-1,-1,-1,-1,-1,-1,-1,-1,-1,-1,-1,-1,-1,-1,-1,-1,-1,-1,-1,-1,-1,-1,-1,-1,-1,-1,-1,-1,-1,-1,-1,-1,-1,-1,-1,-1,-1,-1,-1,-1,-1],"loss_changes":[6.4136365E2,1.6184497E2,8.2571976E1,5.315335E1,6.449395E1,1.3810577E1,8.642674E1,1.4297029E1,4.086902E1,5.032505E1,1.0386932E1,8.374634E0,8.664069E0,4.9170334E1,5.683215E1,1.4792805E1,1.1992434E1,1.5370208E1,2.0441284E1,2.5762543E1,6.4606766E1,1.1111355E1,1.1158082E1,7.333618E0,0E0,0E0,3.9259863E0,1.764531E1,4.083876E1,5.267302E1,4.105256E1,6.730474E0,1.7696136E1,8.709702E0,9.6876526E-1,1.6729286E1,7.5412426E0,1.4107847E1,2.1082947E1,1.3908499E1,1.8842434E1,4.1087234E1,2.3283392E1,1.6664545E1,3.4830856E0,1.1779345E1,7.437223E0,1.5277863E0,5.3902206E0,0E0,0E0,9.829779E0,6.341522E0,4.065924E1,2.5161818E1,4.8258568E1,2.6781046E1,2.498555E1,2.0427124E1,0E0,0E0,0E0,0E0,0E0,0E0,0E0,0E0,0E0,0E0,0E0,0E0,0E0,0E0,0E0,0E0,0E0,0E0,0E0,0E0,0E0,0E0,0E0,0E0,0E0,0E0,0E0,0E0,0E0,0E0,0E0,0E0,0E0,0E0,0E0,0E0,0E0,0E0,0E0,0E0,0E0,0E0,0E0,0E0,0E0,0E0,0E0,0E0,0E0,0E0,0E0,0E0],"parents":[2147483647,0,0,1,1,2,2,3,3,4,4,5,5,6,6,7,7,8,8,9,9,10,10,11,11,12,12,13,13,14,14,15,15,16,16,17,17,18,18,19,19,20,20,21,21,22,22,23,23,26,26,27,27,28,28,29,29,30,30,31,31,32,32,33,33,34,34,35,35,36,36,37,37,38,38,39,39,40,40,41,41,42,42,43,43,44,44,45,45,46,46,47,47,48,48,51,51,52,52,53,53,54,54,55,55,56,56,57,57,58,58],"right_children":[2,4,6,8,10,12,14,16,18,20,22,24,26,28,30,32,34,36,38,40,42,44,46,48,-1,-1,50,52,54,56,58,60,62,64,66,68,70,72,74,76,78,80,82,84,86,88,90,92,94,-1,-1,96,98,100,102,104,106,108,110,-1,-1,-1,-1,-1,-1,-1,-1,-1,-1,-1,-1,-1,-1,-1,-1,-1,-1,-1,-1,-1,-1,-1,-1,-1,-1,-1,-1,-1,-1,-1,-1,-1,-1,-1,-1,-1,-1,-1,-1,-1,-1,-1,-1,-1,-1,-1,-1,-1,-1,-1,-1],"split_conditions":[3.06E2,1E0,2E0,3.8E1,1E0,3E-1,-8.6E1,1E0,-1.76E2,-1.98E2,7.2090426E-3,6.8E1,4.55E2,1.84E2,4.7E1,3E-1,-1.4E1,9.951613E-3,5.7E0,4E0,1E0,5.8E1,5.5E1,6.31E2,-1.5926011E-3,4.019199E-2,1E0,1.8E1,-1.81E2,1E0,5.2E1,1E0,2E-1,3E0,1E0,4.2E1,1.17E1,5E0,7.5E1,5.2E1,2.7E0,1.2E1,1E1,8.3E1,7.6E1,2.3E0,5.01E1,3E0,2E0,-5.2656382E-2,3.598729E-3,9E0,5.348013E-3,7E-1,7.8E1,1.34E2,1E0,-3E1,1.37E1,6.707303E-3,4.7762528E-2,-5.7848293E-2,-7.4848244E-3,-3.0677024E-2,3.8939252E-2,-8.448119E-2,-4.602442E-2,-5.242314E-2,6.649666E-4,-5.277986E-2,1.6387828E-3,-2.290246E-3,-3.479642E-2,-4.6022546E-2,-2.9230176E-2,1.0016334E-2,4.175097E-2,7.748799E-3,-2.100492E-2,4.261E-2,-1.905223E-2,-5.5825826E-2,1.4189694E-3,3.4975763E-2,-1.2578926E-2,5.995334E-2,1.2128088E-2,3.4650933E-2,-4.756023E-2,-7.537526E-3,2.7176097E-2,5.8676403E-2,3.8234916E-2,1.9547816E-2,4.9446788E-2,-3.153524E-2,4.007944E-2,3.9500736E-2,6.2347777E-2,3.5377156E-2,1.1906712E-2,9.091145E-3,-3.1468708E-2,1.7134491E-2,2.7550485E-3,9.055984E-3,-6.1994283E-3,-5.5614288E-5,2.8963495E-2,3.473922E-3,-5.8465164E-2],"split_indices":[26,55,1,2,40,16,6,42,6,6,71,28,26,1,4,10,6,71,16,50,30,4,26,26,0,0,61,2,6,35,2,62,13,11,59,28,11,45,6,28,20,1,26,16,2,8,0,22,22,0,0,4,71,11,2,1,31,6,20,0,0,0,0,0,0,0,0,0,0,0,0,0,0,0,0,0,0,0,0,0,0,0,0,0,0,0,0,0,0,0,0,0,0,0,0,0,0,0,0,0,0,0,0,0,0,0,0,0,0,0,0],"split_type":[0,0,0,0,0,0,0,0,0,0,0,0,0,0,0,0,0,0,0,0,0,0,0,0,0,0,0,0,0,0,0,0,0,0,0,0,0,0,0,0,0,0,0,0,0,0,0,0,0,0,0,0,0,0,0,0,0,0,0,0,0,0,0,0,0,0,0,0,0,0,0,0,0,0,0,0,0,0,0,0,0,0,0,0,0,0,0,0,0,0,0,0,0,0,0,0,0,0,0,0,0,0,0,0,0,0,0,0,0,0,0],"sum_hessian":[1.1547768E4,4.635558E3,6.91221E3,1.4917711E3,3.1437869E3,2.0127419E2,6.7109355E3,3.26149E2,1.1656221E3,2.9422737E3,2.0151329E2,1.8309969E2,1.8174498E1,1.5125143E3,5.1984214E3,2.883436E2,3.7805393E1,1.9134908E2,9.742731E2,5.0065677E2,2.441617E3,1.1299258E2,8.852071E1,1.740219E2,9.077803E0,6.9205737E0,1.1253924E1,1.5724309E2,1.3552712E3,4.3855767E3,8.128449E2,4.873602E1,2.3960757E2,2.1037235E1,1.6768156E1,1.5531003E2,3.603906E1,1.328566E2,8.4141644E2,2.7261618E2,2.2804062E2,1.7455072E3,6.961097E2,7.990399E1,3.3088585E1,2.0076225E1,6.844449E1,1.0984661E2,6.417528E1,5.7090926E0,5.544832E0,1.7675343E1,1.3956775E2,7.403927E2,6.1487854E2,2.5476772E3,1.8378993E3,5.8337555E2,2.2946933E2,3.56363E1,1.3099719E1,1.7985321E1,2.2162225E2,1.5853536E1,5.1837E0,8.452363E0,8.315794E0,1.560004E1,1.3970998E2,2.7954103E1,8.084956E0,6.5838844E1,6.701776E1,5.4470483E2,2.9671164E2,2.3280972E2,3.980644E1,1.0375012E2,1.242905E2,2.6535097E1,1.718972E3,1.723946E1,6.7887024E2,5.24309E1,2.7473091E1,2.803382E1,5.0547647E0,5.1811113E0,1.4895114E1,2.2424234E1,4.6020256E1,9.080715E1,1.9039461E1,3.6244606E1,2.793067E1,1.0417164E1,7.2581797E0,6.9314255E1,7.025349E1,3.757359E2,3.6465683E2,5.7489307E2,3.998547E1,9.040402E2,1.643637E3,3.5600204E2,1.4818972E3,8.7177414E1,4.9619815E2,2.1628941E2,1.317991E1],"tree_param":{"num_deleted":"0","num_feature":"72","num_nodes":"111","size_leaf_vector":"1"}},{"base_weights":[4.7866087E-3,-2.7725145E-1,1.9354369E-1,-3.7188178E-1,8.168573E-2,8.2530993E-1,1.7514792E-1,-1.06131315E-1,-4.5893496E-1,2.1577759E-1,-1.4311597E-1,9.355841E-1,-1.5457316E-1,2.6878646E-1,6.314116E-2,7.692679E-2,-3.2845414E-1,7.3184454E-1,-4.7339073E-1,6.71491E-1,1.5682928E-1,-2.6232597E-1,3.0907628E-1,9.8256767E-1,-2.4025529E-3,-5.4468583E-2,2.7195984E-1,2.4679153E-1,7.818206E-1,-4.8652012E-2,3.1998473E-1,4.897311E-1,-4.5593817E-2,-1.3447148E-1,-5.619523E-1,8.9247966E-1,-6.1200685E-3,-5.0556695E-1,4.2669233E-2,8.3083075E-1,-1.8458475E-1,3.5816702E-1,9.585255E-3,3.7448484E-1,-4.002234E-1,4.404859E-1,-5.0151568E-2,1.2009106E0,8.298111E-1,-2.8798474E-2,4.0019874E-2,4.016436E-1,1.8470594E-1,1.3403119E0,6.412567E-1,2.1031828E-1,-1.0165799E-1,4.2744058E-1,2.6344951E-2,3.2989413E-2,-1.55757135E-2,1.6479904E-2,-8.888375E-3,-1.9873086E-2,3.2358032E-3,-4.634407E-2,-1.4216097E-2,6.1286062E-2,1.39935585E-2,-2.6375035E-2,9.242247E-3,-9.9121025E-3,3.486574E-2,4.220146E-3,5.4268014E-2,3.2818027E-2,-4.7994226E-2,2.2376385E-2,-2.2123711E-2,2.1190265E-2,-9.117025E-3,3.904929E-2,-1.0126352E-2,-1.0090021E-3,-2.6850373E-2,4.1554302E-2,1.6349014E-3,2.3917595E-2,6.401312E-2,4.4162404E-2,8.607746E-4,1.8560667E-2,4.717796E-2,1.1522292E-2,-4.0931343E-3,7.401117E-2,3.2609105E-2,3.5862524E-2,-3.73164E-2,1.2349811E-2,-5.4945003E-2,9.191534E-3,-9.443045E-3,-8.134919E-3,2.4342926E-2,9.21061E-3,-2.2516767E-2],"categories":[],"categories_nodes":[],"categories_segments":[],"categories_sizes":[],"default_left":[0,0,0,0,0,0,0,0,0,0,0,0,0,0,0,0,0,0,0,0,0,0,0,0,0,0,0,0,0,0,0,0,0,0,0,0,0,0,0,0,0,0,0,0,0,0,0,0,0,0,0,0,0,0,0,0,0,0,0,0,0,0,0,0,0,0,0,0,0,0,0,0,0,0,0,0,0,0,0,0,0,0,0,0,0,0,0,0,0,0,0,0,0,0,0,0,0,0,0,0,0,0,0,0,0,0,0],"id":9,"left_children":[1,3,5,7,9,11,13,15,17,19,21,23,25,27,29,31,33,35,37,39,41,43,45,47,-1,-1,49,51,53,55,57,59,61,63,65,67,-1,69,71,73,75,77,79,81,83,85,-1,87,89,-1,-1,91,93,95,97,99,101,103,105,-1,-1,-1,-1,-1,-1,-1,-1,-1,-1,-1,-1,-1,-1,-1,-1,-1,-1,-1,-1,-1,-1,-1,-1,-1,-1,-1,-1,-1,-1,-1,-1,-1,-1,-1,-1,-1,-1,-1,-1,-1,-1,-1,-1,-1,-1,-1,-1],"loss_changes":[6.1502124E2,1.5735611E2,8.028735E1,8.47536E1,2.9185661E1,2.1274673E1,7.0528564E1,3.688887E1,4.7870667E1,1.6179804E1,1.95931E1,8.176788E0,8.525381E0,4.1143066E1,8.7993935E1,2.5187891E1,1.8459675E1,4.7071075E0,4.5325317E1,9.583174E0,1.5948547E1,2.53518E1,1.3541662E1,4.604706E0,0E0,0E0,7.1698055E0,3.3710297E1,1.09264145E1,2.933796E1,2.9312195E1,1.5734051E1,1.9131315E1,1.18036E1,1.8518265E1,5.4391937E0,0E0,3.898993E1,2.5537645E1,1.1015827E1,8.236183E0,1.645787E1,2.4866909E1,1.2261401E1,1.2277603E1,1.1083276E1,0E0,3.2229233E0,4.415825E0,0E0,0E0,1.6220215E1,3.0625526E1,1.8527298E0,1.3385281E1,1.7711514E1,4.418687E1,2.3933533E1,1.8898926E1,0E0,0E0,0E0,0E0,0E0,0E0,0E0,0E0,0E0,0E0,0E0,0E0,0E0,0E0,0E0,0E0,0E0,0E0,0E0,0E0,0E0,0E0,0E0,0E0,0E0,0E0,0E0,0E0,0E0,0E0,0E0,0E0,0E0,0E0,0E0,0E0,0E0,0E0,0E0,0E0,0E0,0E0,0E0,0E0,0E0,0E0,0E0,0E0],"parents":[2147483647,0,0,1,1,2,2,3,3,4,4,5,5,6,6,7,7,8,8,9,9,10,10,11,11,12,12,13,13,14,14,15,15,16,16,17,17,18,18,19,19,20,20,21,21,22,22,23,23,26,26,27,27,28,28,29,29,30,30,31,31,32,32,33,33,34,34,35,35,37,37,38,38,39,39,40,40,41,41,42,42,43,43,44,44,45,45,47,47,48,48,51,51,52,52,53,53,54,54,55,55,56,56,57,57,58,58],"right_children":[2,4,6,8,10,12,14,16,18,20,22,24,26,28,30,32,34,36,38,40,42,44,46,48,-1,-1,50,52,54,56,58,60,62,64,66,68,-1,70,72,74,76,78,80,82,84,86,-1,88,90,-1,-1,92,94,96,98,100,102,104,106,-1,-1,-1,-1,-1,-1,-1,-1,-1,-1,-1,-1,-1,-1,-1,-1,-1,-1,-1,-1,-1,-1,-1,-1,-1,-1,-1,-1,-1,-1,-1,-1,-1,-1,-1,-1,-1,-1,-1,-1,-1,-1,-1,-1,-1,-1,-1,-1],"split_conditions":[3.06E2,1E0,2E0,-1.19E2,4E0,3E-1,-3E0,4E0,2E0,-3E2,6E0,7.2E1,3.5849316E-3,1E0,6.3E0,-3.91E2,2.7E0,2.76E2,4.8E2,1.88E3,4.0550865E-3,1.2537466E-3,5E1,4.46E2,-2.4025529E-3,-5.4468583E-2,2E0,3.78E2,3.63E2,1E0,4E0,2.55E2,4.12E2,2E0,4.7E0,1E0,-6.1200685E-3,1E0,9E-1,5.555E1,9.5E1,6.9E1,1E0,7.3E0,3.3E0,-3.7E1,-5.0151568E-2,4E1,6E1,-2.8798474E-2,4.0019874E-2,5.9E0,6.78E2,2.8E1,9.3E0,2.063E2,3.57E2,3E-1,1.403E2,3.2989413E-2,-1.55757135E-2,1.6479904E-2,-8.888375E-3,-1.9873086E-2,3.2358032E-3,-4.634407E-2,-1.4216097E-2,6.1286062E-2,1.39935585E-2,-2.6375035E-2,9.242247E-3,-9.9121025E-3,3.486574E-2,4.220146E-3,5.4268014E-2,3.2818027E-2,-4.7994226E-2,2.2376385E-2,-2.2123711E-2,2.1190265E-2,-9.117025E-3,3.904929E-2,-1.0126352E-2,-1.0090021E-3,-2.6850373E-2,4.1554302E-2,1.6349014E-3,2.3917595E-2,6.401312E-2,4.4162404E-2,8.607746E-4,1.8560667E-2,4.717796E-2,1.1522292E-2,-4.0931343E-3,7.401117E-2,3.2609105E-2,3.5862524E-2,-3.73164E-2,1.2349811E-2,-5.4945003E-2,9.191534E-3,-9.443045E-3,-8.134919E-3,2.4342926E-2,9.21061E-3,-2.2516767E-2],"split_indices":[26,30,1,6,50,16,6,50,1,6,50,27,71,40,7,6,20,26,6,1,71,71,27,26,0,0,50,26,26,31,50,26,1,24,9,54,0,40,5,0,26,10,51,15,8,6,0,28,28,0,0,5,1,14,9,13,26,14,16,0,0,0,0,0,0,0,0,0,0,0,0,0,0,0,0,0,0,0,0,0,0,0,0,0,0,0,0,0,0,0,0,0,0,0,0,0,0,0,0,0,0,0,0,0,0,0,0],"split_type":[0,0,0,0,0,0,0,0,0,0,0,0,0,0,0,0,0,0,0,0,0,0,0,0,0,0,0,0,0,0,0,0,0,0,0,0,0,0,0,0,0,0,0,0,0,0,0,0,0,0,0,0,0,0,0,0,0,0,0,0,0,0,0,0,0,0,0,0,0,0,0,0,0,0,0,0,0,0,0,0,0,0,0,0,0,0,0,0,0,0,0,0,0,0,0,0,0,0,0,0,0,0,0,0,0,0,0],"sum_hessian":[1.1550577E4,4.630814E3,6.919763E3,3.6646328E3,9.66181E2,1.9454758E2,6.7252153E3,9.047842E2,2.7598486E3,6.052161E2,3.6096494E2,1.7490886E2,1.9638708E1,3.6621934E3,3.0630222E3,4.965689E2,4.0821527E2,3.2506794E1,2.7273418E3,6.8130035E1,5.3708606E2,2.8599014E2,7.4974785E1,1.669362E2,7.972658E0,5.6663036E0,1.3972404E1,3.5130615E3,1.4913174E2,2.1346917E3,9.2833057E2,1.1296451E2,3.836044E2,2.2383572E2,1.8437953E2,2.7323952E1,5.182841E0,2.567292E3,1.600498E2,5.7463882E1,1.0666154E1,2.2626482E2,3.1082126E2,5.0600628E1,2.3538951E2,6.875333E1,6.22146E0,6.589191E1,1.010443E2,5.3299828E0,8.642421E0,1.003841E3,2.5092205E3,2.8270721E1,1.2086102E2,3.6218808E2,1.7725034E3,6.792918E2,2.4903876E2,9.3332146E1,1.9632362E1,9.954358E1,2.8406082E2,9.6038826E1,1.2779689E2,7.865436E1,1.05725174E2,1.7048973E1,1.0274979E1,2.4884717E3,7.8820335E1,1.1750488E2,4.2544926E1,1.4950874E1,4.251301E1,5.190058E0,5.476095E0,2.0394345E2,2.2321371E1,9.803372E1,2.1278754E2,2.947922E1,2.1121408E1,6.260211E1,1.727874E2,3.4586533E1,3.4166794E1,7.2157164E0,5.8676193E1,9.472795E1,6.31634E0,9.520646E2,5.1776447E1,2.1418423E3,3.6737823E2,2.2537321E1,5.7334003E0,1.1504353E2,5.8174872E0,3.5310706E2,9.081005E0,4.1447363E2,1.3580298E3,6.197891E1,6.173129E2,1.8754202E2,6.1496723E1],"tree_param":{"num_deleted":"0","num_feature":"72","num_nodes":"107","size_leaf_vector":"1"}},{"base_weights":[4.9457243E-3,-2.6071265E-1,1.8197529E-1,-4.77367E-1,-1.02234975E-1,4.370075E-1,1.4084837E-1,-6.911109E-2,-5.858116E-1,3.301471E-1,-2.655715E-1,5.8051383E-1,1.7714547E-1,7.6693445E-1,1.1953427E-1,-2.9802915E-1,9.5335834E-2,-7.835848E-1,-4.2634046E-1,5.186412E-1,6.3583426E-2,-3.140893E-1,3.1690672E-1,-4.450516E-2,6.4815503E-1,2.8823838E-1,-1.7027044E-1,8.5254866E-1,-4.615745E-2,3.3631048E-1,6.741233E-2,-5.204753E-1,1.9101398E-1,-4.6051466E-1,2.982172E-1,-5.801756E-1,-9.460418E-1,-4.8160714E-1,2.1647036E-1,8.551966E-1,3.7304157E-1,1.7463425E-1,-7.340504E-1,-2.0679869E-1,-5.4135954E-1,1.0346042E-1,7.041726E-1,4.196155E-1,-6.9061697E-1,7.4089766E-1,2.6141518E-1,2.0983243E-1,7.03416E-1,-6.9514495E-1,1.8527101E-1,8.919206E-1,-9.522743E-3,-4.6034446E-1,4.590488E-2,4.632765E-1,1.7890915E-1,3.1723604E-2,3.6726603E-1,-5.4633524E-2,-1.4801129E-2,2.0265458E-2,-3.2174323E-2,-3.462715E-2,4.1659273E-2,2.0517305E-2,-1.4581512E-2,-4.4748913E-2,-2.0606698E-2,-3.460921E-2,-5.5437636E-2,-1.0154399E-2,-2.891472E-2,-6.362996E-4,4.7518693E-2,7.1675025E-2,3.6388554E-2,1.4466615E-2,5.3569235E-2,9.814177E-4,3.2534745E-2,2.3230862E-2,-5.665214E-2,-1.38654215E-2,9.094824E-3,-3.8361292E-2,-1.9325595E-2,-4.7526243E-3,3.93418E-2,4.276077E-2,-1.4106116E-2,3.020072E-2,-3.0008772E-2,-5.6832857E-2,1.7168388E-2,5.0933313E-2,2.9933622E-2,-1.6844766E-2,2.1126065E-2,1.6316494E-2,-1.3379621E-2,-1.4685157E-2,4.5516744E-2,-5.665451E-2,-4.3045037E-4,2.8059235E-2,-2.2698758E-2,7.118799E-2,4.133886E-2,-4.8331235E-2,9.785936E-3,2.4266874E-2,-3.966997E-2,-8.352624E-3,1.3620784E-2,-6.4482883E-4,1.3565436E-2,-7.721539E-2,2.016593E-2],"categories":[],"categories_nodes":[],"categories_segments":[],"categories_sizes":[],"default_left":[0,0,0,0,0,0,0,0,0,0,0,0,0,0,0,0,0,0,0,0,0,0,0,0,0,0,0,0,0,0,0,0,0,0,0,0,0,0,0,0,0,0,0,0,0,0,0,0,0,0,0,0,0,0,0,0,0,0,0,0,0,0,0,0,0,0,0,0,0,0,0,0,0,0,0,0,0,0,0,0,0,0,0,0,0,0,0,0,0,0,0,0,0,0,0,0,0,0,0,0,0,0,0,0,0,0,0,0,0,0,0,0,0,0,0,0,0,0,0,0,0,0,0],"id":10,"left_children":[1,3,5,7,9,11,13,15,17,19,21,23,25,27,29,31,33,35,37,39,41,43,45,47,49,51,53,55,57,59,61,63,65,67,69,71,73,75,77,79,81,83,85,87,89,91,93,95,97,99,101,103,105,107,109,111,-1,113,-1,115,117,119,121,-1,-1,-1,-1,-1,-1,-1,-1,-1,-1,-1,-1,-1,-1,-1,-1,-1,-1,-1,-1,-1,-1,-1,-1,-1,-1,-1,-1,-1,-1,-1,-1,-1,-1,-1,-1,-1,-1,-1,-1,-1,-1,-1,-1,-1,-1,-1,-1,-1,-1,-1,-1,-1,-1,-1,-1,-1,-1,-1,-1],"loss_changes":[5.4255316E2,1.5835196E2,7.2552216E1,8.623465E1,1.8835E2,3.5731384E1,7.948323E1,1.5467517E1,4.822278E1,3.6713707E1,5.4794113E1,2.6181808E1,1.3299012E1,1.3692909E1,6.5148834E1,1.8777481E1,2.7138174E1,2.2122192E1,3.04617E1,2.0666939E1,2.7062567E1,4.3463593E1,1.2269162E1,1.8685736E1,1.9829727E1,8.332134E0,1.576862E1,7.4591064E0,8.263888E0,2.2255737E1,4.9762817E1,1.4867828E1,9.991276E0,1.9912891E1,1.176104E1,1.5883087E1,1.4922028E1,2.108052E1,1.1507696E1,8.42984E0,1.7268982E1,1.9743034E1,1.8391048E1,3.3365673E1,1.9725693E1,1.329189E1,8.119076E0,7.192952E0,1.2391981E1,1.7157364E1,1.0699713E1,1.23535E1,8.717234E0,1.0229389E1,1.2450823E1,4.75502E0,0E0,4.9722185E0,0E0,1.7520554E1,1.6243227E1,4.4449593E1,3.471025E1,0E0,0E0,0E0,0E0,0E0,0E0,0E0,0E0,0E0,0E0,0E0,0E0,0E0,0E0,0E0,0E0,0E0,0E0,0E0,0E0,0E0,0E0,0E0,0E0,0E0,0E0,0E0,0E0,0E0,0E0,0E0,0E0,0E0,0E0,0E0,0E0,0E0,0E0,0E0,0E0,0E0,0E0,0E0,0E0,0E0,0E0,0E0,0E0,0E0,0E0,0E0,0E0,0E0,0E0,0E0,0E0,0E0,0E0,0E0,0E0],"parents":[2147483647,0,0,1,1,2,2,3,3,4,4,5,5,6,6,7,7,8,8,9,9,10,10,11,11,12,12,13,13,14,14,15,15,16,16,17,17,18,18,19,19,20,20,21,21,22,22,23,23,24,24,25,25,26,26,27,27,28,28,29,29,30,30,31,31,32,32,33,33,34,34,35,35,36,36,37,37,38,38,39,39,40,40,41,41,42,42,43,43,44,44,45,45,46,46,47,47,48,48,49,49,50,50,51,51,52,52,53,53,54,54,55,55,57,57,59,59,60,60,61,61,62,62],"right_children":[2,4,6,8,10,12,14,16,18,20,22,24,26,28,30,32,34,36,38,40,42,44,46,48,50,52,54,56,58,60,62,64,66,68,70,72,74,76,78,80,82,84,86,88,90,92,94,96,98,100,102,104,106,108,110,112,-1,114,-1,116,118,120,122,-1,-1,-1,-1,-1,-1,-1,-1,-1,-1,-1,-1,-1,-1,-1,-1,-1,-1,-1,-1,-1,-1,-1,-1,-1,-1,-1,-1,-1,-1,-1,-1,-1,-1,-1,-1,-1,-1,-1,-1,-1,-1,-1,-1,-1,-1,-1,-1,-1,-1,-1,-1,-1,-1,-1,-1,-1,-1,-1,-1],"split_conditions":[3.04E2,1.1E1,-1.46E2,3.8E1,1.5E1,7.3E2,2E0,2E0,5.156E1,4E0,1E0,2.2E1,5.16E2,3E-1,1.3E1,4.703E1,1E0,3.1343664E-3,4.8E2,1.2E1,2.653E2,2.8E1,1.86E2,7E-1,5E0,1E2,5.1E1,7.8E1,3E-1,1E0,8.97E2,-1.29E2,1.2E2,3.672E1,3E0,3.612E1,1E0,-1.76E2,2E0,1.47E2,2.893E2,8.3E1,4E0,1.6E0,1.19E2,9.4E1,6.3E0,2.7E1,-1.98E2,-2.67E2,3.42E2,5E0,6.217E1,2.3E0,5.2E1,3E0,-9.522743E-3,1E0,4.590488E-2,1.701E3,3.026E1,5E1,3E0,-5.4633524E-2,-1.4801129E-2,2.0265458E-2,-3.2174323E-2,-3.462715E-2,4.1659273E-2,2.0517305E-2,-1.4581512E-2,-4.4748913E-2,-2.0606698E-2,-3.460921E-2,-5.5437636E-2,-1.0154399E-2,-2.891472E-2,-6.362996E-4,4.7518693E-2,7.1675025E-2,3.6388554E-2,1.4466615E-2,5.3569235E-2,9.814177E-4,3.2534745E-2,2.3230862E-2,-5.665214E-2,-1.38654215E-2,9.094824E-3,-3.8361292E-2,-1.9325595E-2,-4.7526243E-3,3.93418E-2,4.276077E-2,-1.4106116E-2,3.020072E-2,-3.0008772E-2,-5.6832857E-2,1.7168388E-2,5.0933313E-2,2.9933622E-2,-1.6844766E-2,2.1126065E-2,1.6316494E-2,-1.3379621E-2,-1.4685157E-2,4.5516744E-2,-5.665451E-2,-4.3045037E-4,2.8059235E-2,-2.2698758E-2,7.118799E-2,4.133886E-2,-4.8331235E-2,9.785936E-3,2.4266874E-2,-3.966997E-2,-8.352624E-3,1.3620784E-2,-6.4482883E-4,1.3565436E-2,-7.721539E-2,2.016593E-2],"split_indices":[26,21,6,2,21,1,1,22,0,50,40,2,26,16,21,0,66,71,6,21,16,21,26,11,50,48,4,27,14,57,26,6,4,0,23,0,39,6,22,1,16,4,20,5,26,4,11,21,6,6,26,50,0,11,10,2,0,59,0,1,0,4,2,0,0,0,0,0,0,0,0,0,0,0,0,0,0,0,0,0,0,0,0,0,0,0,0,0,0,0,0,0,0,0,0,0,0,0,0,0,0,0,0,0,0,0,0,0,0,0,0,0,0,0,0,0,0,0,0,0,0,0,0],"split_type":[0,0,0,0,0,0,0,0,0,0,0,0,0,0,0,0,0,0,0,0,0,0,0,0,0,0,0,0,0,0,0,0,0,0,0,0,0,0,0,0,0,0,0,0,0,0,0,0,0,0,0,0,0,0,0,0,0,0,0,0,0,0,0,0,0,0,0,0,0,0,0,0,0,0,0,0,0,0,0,0,0,0,0,0,0,0,0,0,0,0,0,0,0,0,0,0,0,0,0,0,0,0,0,0,0,0,0,0,0,0,0,0,0,0,0,0,0,0,0,0,0,0,0],"sum_hessian":[1.1534462E4,4.612407E3,6.9220547E3,1.9477001E3,2.664707E3,9.5991266E2,5.962142E3,4.0912503E2,1.5385751E3,7.3034015E2,1.9343671E3,6.176096E2,3.4230304E2,1.9513753E2,5.7670044E3,1.7069583E2,2.384292E2,6.850613E2,8.5351373E2,4.2726456E2,3.030756E2,1.7860573E3,1.4830977E2,6.03456E1,5.5726404E2,2.594949E2,8.280815E1,1.7650407E2,1.8633455E1,1.1167919E3,4.6502124E3,1.17283844E2,5.3411995E1,6.3415302E1,1.750139E2,3.0622028E2,3.78841E2,7.861722E2,6.734158E1,1.2755227E2,2.9971228E2,2.6672217E2,3.6353416E1,1.2145824E3,5.714749E2,9.642894E1,5.188082E1,3.5322784E1,2.5022818E1,4.4873813E2,1.0852592E2,2.1954028E2,3.99546E1,3.3054974E1,4.9753174E1,1.7022322E2,6.28085E0,1.3400138E1,5.233318E0,6.170844E2,4.9970752E2,4.156598E3,4.9361447E2,3.1954472E1,8.532937E1,4.2907814E1,1.0504183E1,5.41653E1,9.250004E0,1.4731409E2,2.7699814E1,1.05066635E2,2.0115364E2,1.5002681E2,2.2881418E2,2.0338835E2,5.827838E2,5.206459E1,1.5276992E1,2.117999E1,1.0637228E2,2.6889465E2,3.0817656E1,2.0199393E2,6.472823E1,9.0376625E0,2.7315754E1,1.0283289E3,1.8625346E2,2.3082726E2,3.4064764E2,7.538992E1,2.1039019E1,4.5106102E1,6.7747188E0,3.0259043E1,5.0637403E0,1.7412233E1,7.610585E0,1.4987225E2,2.9886584E2,2.2791704E1,8.573421E1,1.7673203E2,4.280826E1,6.7942853E0,3.3160316E1,1.9784124E1,1.3270849E1,3.1406471E1,1.8346703E1,1.6299147E1,1.5392407E2,7.296274E0,6.103864E0,6.0704156E2,1.0042836E1,1.0615642E2,3.9355112E2,3.5048105E3,6.5178754E2,8.362902E0,4.852516E2],"tree_param":{"num_deleted":"0","num_feature":"72","num_nodes":"123","size_leaf_vector":"1"}},{"base_weights":[1.0643538E-2,-2.3714976E-1,1.7369822E-1,-4.4032758E-1,-9.035071E-2,4.4397733E-1,1.3479848E-1,-5.917833E-2,-5.48681E-1,2.4827406E-1,-2.793098E-1,5.085982E-1,1.6953848E-1,6.239838E-1,1.164626E-1,7.17203E-1,-1.0464416E-1,-6.6116685E-1,-3.327219E-1,3.705792E-1,-6.8014935E-2,-3.7560904E-1,1.1741723E-3,4.851155E-1,1.2842528E0,3.5633042E-1,-5.824764E-1,7.8634894E-1,1.19935445E-1,1.8493968E-1,6.402174E-3,-7.4391053E-3,1.1127988E0,-2.8492868E-1,1.3375267E-1,-3.5837984E-1,-7.3949116E-1,-3.9835054E-1,4.6649426E-1,2.5805572E-1,7.995997E-1,3.773941E-2,-8.310665E-1,-3.882563E-1,6.568308E-2,3.0462968E-1,-1.4821456E-1,3.8360456E-1,6.626858E-1,2.9988563E-2,7.446083E-2,2.7896093E-2,6.417761E-1,-9.072041E-1,2.9799154E-2,9.577046E-1,4.9910584E-1,-4.6996152E-1,5.290698E-1,2.3224983E-1,-4.0517315E-2,-7.0874274E-2,2.1888752E-1,7.215853E-2,1.5935078E-2,-6.5966467E-3,-3.2848135E-2,-4.84715E-3,3.2370888E-2,5.267635E-4,-3.0357325E-2,-1.7161263E-2,-4.057436E-2,-2.4139341E-2,7.6139736E-4,-3.1675976E-3,4.7012586E-2,3.2868885E-2,6.7370543E-3,2.5895545E-2,5.043992E-2,-1.7764186E-2,1.3611279E-2,-5.474794E-2,2.4820354E-2,-2.491809E-2,-1.0204264E-2,7.4607967E-3,4.5233205E-2,1.915999E-2,-1.1872365E-2,2.2729978E-2,2.2612922E-3,3.7573367E-2,-3.2914241E-3,-1.592763E-2,2.311763E-2,5.321849E-2,1.2218634E-2,-2.2061154E-2,-7.60151E-2,3.940516E-2,6.3402906E-2,-1.2922861E-3,3.6944274E-2,-3.7479613E-2,1.0412077E-2,3.4906313E-2,-1.3267698E-2,1.3162792E-2,-5.1209773E-3,-6.570905E-3,1.8552294E-2,-4.760471E-3,3.24263E-2,1.3831426E-2,-2.3149418E-2],"categories":[],"categories_nodes":[],"categories_segments":[],"categories_sizes":[],"default_left":[0,0,0,0,0,0,0,0,0,0,0,0,0,0,0,0,0,0,0,0,0,0,0,0,0,0,0,0,0,0,0,0,0,0,0,0,0,0,0,0,0,0,0,0,0,0,0,0,0,0,0,0,0,0,0,0,0,0,0,0,0,0,0,0,0,0,0,0,0,0,0,0,0,0,0,0,0,0,0,0,0,0,0,0,0,0,0,0,0,0,0,0,0,0,0,0,0,0,0,0,0,0,0,0,0,0,0,0,0,0,0,0,0,0,0,0,0],"id":11,"left_children":[1,3,5,7,9,11,13,15,17,19,21,23,25,27,29,31,33,35,37,39,41,43,45,47,49,51,53,55,57,59,61,-1,63,65,67,69,71,73,75,77,79,81,83,85,-1,87,89,91,93,-1,-1,95,97,99,-1,101,103,105,107,109,111,113,115,-1,-1,-1,-1,-1,-1,-1,-1,-1,-1,-1,-1,-1,-1,-1,-1,-1,-1,-1,-1,-1,-1,-1,-1,-1,-1,-1,-1,-1,-1,-1,-1,-1,-1,-1,-1,-1,-1,-1,-1,-1,-1,-1,-1,-1,-1,-1,-1,-1,-1,-1,-1,-1,-1],"loss_changes":[4.6357367E2,1.3577573E2,7.2694855E1,7.883768E1,1.6930035E2,1.534639E1,5.4200233E1,1.5036465E1,3.5900116E1,3.6689312E1,4.5864426E1,1.2197311E1,2.3715391E1,1.777732E1,4.3962585E1,8.242015E0,1.7284609E1,2.2896759E1,2.7001347E1,3.2796654E1,2.142736E1,2.7515686E1,1.9763996E1,1.2089127E1,1.9233093E0,1.2607801E1,1.3428115E1,7.642868E0,1.3374173E1,3.836548E1,3.6770096E1,0E0,3.816515E0,1.2936823E1,2.0618996E1,1.8604979E1,2.1831635E1,1.6524567E1,9.9136305E0,2.6653591E1,7.82032E0,2.1645723E1,1.1864754E1,2.535585E1,0E0,1.3276981E1,1.3944932E1,1.0503426E1,1.6070457E1,0E0,0E0,9.730238E0,1.1832764E1,6.9852715E0,0E0,4.3828354E0,8.041776E0,4.4803586E0,4.5611963E0,3.0871017E1,2.341425E1,2.8811066E1,2.3641132E1,0E0,0E0,0E0,0E0,0E0,0E0,0E0,0E0,0E0,0E0,0E0,0E0,0E0,0E0,0E0,0E0,0E0,0E0,0E0,0E0,0E0,0E0,0E0,0E0,0E0,0E0,0E0,0E0,0E0,0E0,0E0,0E0,0E0,0E0,0E0,0E0,0E0,0E0,0E0,0E0,0E0,0E0,0E0,0E0,0E0,0E0,0E0,0E0,0E0,0E0,0E0,0E0,0E0,0E0],"parents":[2147483647,0,0,1,1,2,2,3,3,4,4,5,5,6,6,7,7,8,8,9,9,10,10,11,11,12,12,13,13,14,14,15,15,16,16,17,17,18,18,19,19,20,20,21,21,22,22,23,23,24,24,25,25,26,26,27,27,28,28,29,29,30,30,32,32,33,33,34,34,35,35,36,36,37,37,38,38,39,39,40,40,41,41,42,42,43,43,45,45,46,46,47,47,48,48,51,51,52,52,53,53,55,55,56,56,57,57,58,58,59,59,60,60,61,61,62,62],"right_children":[2,4,6,8,10,12,14,16,18,20,22,24,26,28,30,32,34,36,38,40,42,44,46,48,50,52,54,56,58,60,62,-1,64,66,68,70,72,74,76,78,80,82,84,86,-1,88,90,92,94,-1,-1,96,98,100,-1,102,104,106,108,110,112,114,116,-1,-1,-1,-1,-1,-1,-1,-1,-1,-1,-1,-1,-1,-1,-1,-1,-1,-1,-1,-1,-1,-1,-1,-1,-1,-1,-1,-1,-1,-1,-1,-1,-1,-1,-1,-1,-1,-1,-1,-1,-1,-1,-1,-1,-1,-1,-1,-1,-1,-1,-1,-1,-1,-1],"split_conditions":[3.04E2,1.1E1,1.2E1,4E1,1.7E1,9E0,4E0,1E0,7.88E2,5E0,1E0,1E0,5E0,3E-1,1E0,2E0,2.6E1,-6.9E0,3E0,2.2E2,2.803E2,6E0,4.68E1,2E0,6.7E0,6.7E0,1.1E1,6.74E2,1.8E1,7.3E2,2.1E1,-7.4391053E-3,1E0,4.6E1,2E0,1.37E1,2E-1,3.63E0,1.66E2,1.2E1,7E-1,1E2,2.73E1,1.77E2,6.568308E-2,8.6E0,3.1E1,2E0,3E0,2.9988563E-2,7.446083E-2,2.4E1,1E0,3E0,2.9799154E-2,1E0,2.8E1,1E0,3.2E1,5.4E1,2.04E2,1E0,7.5E1,7.215853E-2,1.5935078E-2,-6.5966467E-3,-3.2848135E-2,-4.84715E-3,3.2370888E-2,5.267635E-4,-3.0357325E-2,-1.7161263E-2,-4.057436E-2,-2.4139341E-2,7.6139736E-4,-3.1675976E-3,4.7012586E-2,3.2868885E-2,6.7370543E-3,2.5895545E-2,5.043992E-2,-1.7764186E-2,1.3611279E-2,-5.474794E-2,2.4820354E-2,-2.491809E-2,-1.0204264E-2,7.4607967E-3,4.5233205E-2,1.915999E-2,-1.1872365E-2,2.2729978E-2,2.2612922E-3,3.7573367E-2,-3.2914241E-3,-1.592763E-2,2.311763E-2,5.321849E-2,1.2218634E-2,-2.2061154E-2,-7.60151E-2,3.940516E-2,6.3402906E-2,-1.2922861E-3,3.6944274E-2,-3.7479613E-2,1.0412077E-2,3.4906313E-2,-1.3267698E-2,1.3162792E-2,-5.1209773E-3,-6.570905E-3,1.8552294E-2,-4.760471E-3,3.24263E-2,1.3831426E-2,-2.3149418E-2],"split_indices":[26,21,21,2,21,15,1,31,1,50,30,40,50,16,34,22,2,7,22,26,16,22,13,22,10,8,9,26,2,1,4,0,59,27,22,14,13,3,16,21,20,48,9,26,0,7,2,11,23,0,0,4,56,20,0,55,21,67,21,27,4,40,2,0,0,0,0,0,0,0,0,0,0,0,0,0,0,0,0,0,0,0,0,0,0,0,0,0,0,0,0,0,0,0,0,0,0,0,0,0,0,0,0,0,0,0,0,0,0,0,0,0,0,0,0,0,0],"split_type":[0,0,0,0,0,0,0,0,0,0,0,0,0,0,0,0,0,0,0,0,0,0,0,0,0,0,0,0,0,0,0,0,0,0,0,0,0,0,0,0,0,0,0,0,0,0,0,0,0,0,0,0,0,0,0,0,0,0,0,0,0,0,0,0,0,0,0,0,0,0,0,0,0,0,0,0,0,0,0,0,0,0,0,0,0,0,0,0,0,0,0,0,0,0,0,0,0,0,0,0,0,0,0,0,0,0,0,0,0,0,0,0,0,0,0,0,0],"sum_hessian":[1.1471481E4,4.552547E3,6.9189346E3,1.9087433E3,2.6438035E3,8.692042E2,6.0497305E3,4.2285034E2,1.485893E3,9.467905E2,1.6970128E3,7.0285333E2,1.663509E2,2.1737321E2,5.8323574E3,2.2575367E1,4.0027496E2,9.7564874E2,5.102442E2,6.826474E2,2.641432E2,1.2630334E3,4.3397934E2,6.837776E2,1.9075724E1,1.3367398E2,3.2676933E1,1.6398875E2,5.3384464E1,3.5949695E3,2.237388E3,7.274629E0,1.5300736E1,2.2780511E2,1.7246985E2,2.0165685E2,7.739919E2,4.7198788E2,3.8256313E1,5.420738E2,1.405736E2,2.3282552E2,3.131767E1,1.2544121E3,8.621404E0,1.4282259E2,2.9115677E2,4.3707617E2,2.4670143E2,5.300571E0,1.3775153E1,6.2666965E1,7.100701E1,2.5798315E1,6.8786182E0,1.0125229E2,6.2736465E1,2.1801708E1,3.1582754E1,2.9714143E3,6.23555E2,1.6411886E3,5.9619934E2,1.0228117E1,5.07262E0,1.6238168E2,6.542343E1,1.1957705E2,5.2892807E1,8.1601456E1,1.200554E2,1.19889244E2,6.5410266E2,3.918254E2,8.016248E1,1.8468067E1,1.9788248E1,1.2687893E2,4.1519485E2,6.138864E1,7.9184944E1,8.680917E1,1.4601633E2,2.6270449E1,5.0472226E0,7.839979E2,4.7041415E2,1.14432365E2,2.8390223E1,4.138704E1,2.4976971E2,3.60993E2,7.608316E1,2.1987456E2,2.6826868E1,3.501318E1,2.7653784E1,3.3599464E1,3.7407547E1,1.5634828E1,1.0163487E1,6.7761475E1,3.3490807E1,1.9950619E1,4.2785847E1,1.5362369E1,6.439339E0,2.6141052E1,5.441702E0,2.7196602E3,2.5175418E2,5.113052E2,1.1224981E2,1.588328E3,5.286069E1,5.5020264E2,4.5996655E1],"tree_param":{"num_deleted":"0","num_feature":"72","num_nodes":"117","size_leaf_vector":"1"}},{"base_weights":[4.551968E-3,-2.386862E-1,1.6418155E-1,-3.206162E-1,6.993575E-2,4.2335257E-1,1.2264478E-1,-3.527761E-2,-3.9270994E-1,2.7534083E-1,-7.572774E-2,6.79296E-1,2.8674853E-1,6.827604E-1,1.0440558E-1,-1.8578058E-1,2.4985185E-1,8.5366184E-1,-4.0921116E-1,3.9849037E-1,-1.1986541E-1,-1.7797719E-1,3.1008455E-1,-2.1742938E-2,7.9123795E-1,4.2992267E-1,-2.1587236E-2,7.3819673E-1,-2.1881571E-2,6.616684E-2,2.9539672E-1,-3.4655455E-1,5.364592E-2,4.1309357E-2,4.7635984E-1,9.9290586E-1,3.3995465E-3,-1.6962671E-1,-4.7135282E-1,3.0791473E-1,7.3173296E-1,-3.722323E-1,4.8803255E-1,3.0630732E-1,-2.5346833E-1,7.249223E-1,-2.4915487E-3,2.4225248E-1,-6.805714E-2,9.258173E-1,4.048436E-1,6.623127E-1,2.891696E-1,2.8465876E-1,-4.074324E-1,8.3871806E-1,1.6641621E-1,1.6237044E-1,-4.604151E-2,3.4828025E-1,-3.0327228E-1,-2.6014016E-3,-2.9073084E-2,-6.042087E-2,4.88255E-3,7.139466E-2,-3.3026624E-3,-7.443559E-4,3.1520706E-2,3.0641181E-2,6.616875E-2,-1.1155065E-2,3.9944474E-2,-3.268396E-2,-1.7397692E-2,2.0364473E-2,-2.3837678E-2,4.948676E-2,9.5796253E-4,7.658865E-3,-3.5425227E-2,4.1976955E-2,-2.6268115E-2,2.6635487E-2,-2.6810149E-2,-9.111105E-3,-3.820235E-2,4.9327057E-2,1.622832E-3,-1.7072624E-2,2.2463692E-2,-2.2091454E-2,2.760586E-2,5.9116047E-2,3.8942736E-2,4.252818E-2,-8.319474E-3,4.461579E-2,1.8073704E-2,1.6121006E-2,-4.522356E-2,1.8917717E-2,-3.117092E-2,-5.1694375E-2,-6.3009458E-3,4.484537E-2,6.045461E-3,-7.0346766E-3,4.027189E-2,1.9275272E-2,4.5561744E-3,-3.051868E-3,2.9371122E-2,1.569658E-2,5.697347E-2,-7.6650865E-3,-8.355547E-2],"categories":[],"categories_nodes":[],"categories_segments":[],"categories_sizes":[],"default_left":[0,0,0,0,0,0,0,0,0,0,0,0,0,0,0,0,0,0,0,0,0,0,0,0,0,0,0,0,0,0,0,0,0,0,0,0,0,0,0,0,0,0,0,0,0,0,0,0,0,0,0,0,0,0,0,0,0,0,0,0,0,0,0,0,0,0,0,0,0,0,0,0,0,0,0,0,0,0,0,0,0,0,0,0,0,0,0,0,0,0,0,0,0,0,0,0,0,0,0,0,0,0,0,0,0,0,0,0,0,0,0,0,0,0,0,0,0],"id":12,"left_children":[1,3,5,7,9,11,13,15,17,19,21,23,25,27,29,31,33,35,37,39,41,43,45,47,49,51,53,55,-1,57,59,61,63,65,67,69,-1,71,73,75,77,79,81,83,85,87,89,91,-1,93,95,97,99,101,103,105,107,109,111,113,115,-1,-1,-1,-1,-1,-1,-1,-1,-1,-1,-1,-1,-1,-1,-1,-1,-1,-1,-1,-1,-1,-1,-1,-1,-1,-1,-1,-1,-1,-1,-1,-1,-1,-1,-1,-1,-1,-1,-1,-1,-1,-1,-1,-1,-1,-1,-1,-1,-1,-1,-1,-1,-1,-1,-1,-1],"loss_changes":[4.4712885E2,1.1539664E2,7.4795166E1,7.416275E1,2.8684885E1,3.33687E1,6.1161354E1,3.1304005E1,5.954959E1,1.9404247E1,2.2198315E1,2.6175812E1,2.7716862E1,1.205204E1,4.238262E1,1.8392447E1,1.188744E1,4.0825996E0,4.222513E1,8.93412E0,1.4795252E1,1.6322697E1,1.5297416E1,1.6903147E1,1.4573486E1,1.3829857E1,2.3745985E1,1.022393E1,0E0,5.224051E1,3.0759224E1,1.9736317E1,1.08157215E1,1.9794937E1,9.146633E0,3.227293E0,0E0,3.056845E1,5.052426E1,1.8934229E1,1.1770363E1,1.2101482E1,1.054939E1,1.180245E1,1.3864819E1,9.151384E0,1.0607313E1,8.723441E0,0E0,7.086914E0,1.9500883E1,1.0812149E1,1.095776E1,9.771718E0,1.5542137E1,6.2864685E0,5.648964E0,4.1384117E1,2.1260574E1,2.3831894E1,1.5974232E1,0E0,0E0,0E0,0E0,0E0,0E0,0E0,0E0,0E0,0E0,0E0,0E0,0E0,0E0,0E0,0E0,0E0,0E0,0E0,0E0,0E0,0E0,0E0,0E0,0E0,0E0,0E0,0E0,0E0,0E0,0E0,0E0,0E0,0E0,0E0,0E0,0E0,0E0,0E0,0E0,0E0,0E0,0E0,0E0,0E0,0E0,0E0,0E0,0E0,0E0,0E0,0E0,0E0,0E0,0E0,0E0],"parents":[2147483647,0,0,1,1,2,2,3,3,4,4,5,5,6,6,7,7,8,8,9,9,10,10,11,11,12,12,13,13,14,14,15,15,16,16,17,17,18,18,19,19,20,20,21,21,22,22,23,23,24,24,25,25,26,26,27,27,29,29,30,30,31,31,32,32,33,33,34,34,35,35,37,37,38,38,39,39,40,40,41,41,42,42,43,43,44,44,45,45,46,46,47,47,49,49,50,50,51,51,52,52,53,53,54,54,55,55,56,56,57,57,58,58,59,59,60,60],"right_children":[2,4,6,8,10,12,14,16,18,20,22,24,26,28,30,32,34,36,38,40,42,44,46,48,50,52,54,56,-1,58,60,62,64,66,68,70,-1,72,74,76,78,80,82,84,86,88,90,92,-1,94,96,98,100,102,104,106,108,110,112,114,116,-1,-1,-1,-1,-1,-1,-1,-1,-1,-1,-1,-1,-1,-1,-1,-1,-1,-1,-1,-1,-1,-1,-1,-1,-1,-1,-1,-1,-1,-1,-1,-1,-1,-1,-1,-1,-1,-1,-1,-1,-1,-1,-1,-1,-1,-1,-1,-1,-1,-1,-1,-1,-1,-1,-1,-1],"split_conditions":[3.04E2,1E0,-1.46E2,-1.54E2,4.0550865E-3,4.22E2,2E0,2E0,2E0,2.193E2,8.9E1,-4.08E1,-2.32E2,1E0,7.6E0,8E1,4E0,1E0,3.5E1,1E0,2E0,3.2E1,1.01E3,-4.46E1,4E0,3.6045213E-3,5.3E1,5.8E1,-2.1881571E-2,-3E0,7.1E1,1E0,1E1,2.48E2,-5.85E1,2E0,3.3995465E-3,3.1E2,1E0,6.5E1,4.6E1,2E0,7E-1,4E0,6.7E0,5E0,3.343E2,2.77E2,-6.805714E-2,-2.25E2,7E-1,1.3E0,3.3E0,3E0,1.7E0,3E-1,1E0,8.3E1,7.3E0,1.502E2,4.43E1,-2.6014016E-3,-2.9073084E-2,-6.042087E-2,4.88255E-3,7.139466E-2,-3.3026624E-3,-7.443559E-4,3.1520706E-2,3.0641181E-2,6.616875E-2,-1.1155065E-2,3.9944474E-2,-3.268396E-2,-1.7397692E-2,2.0364473E-2,-2.3837678E-2,4.948676E-2,9.5796253E-4,7.658865E-3,-3.5425227E-2,4.1976955E-2,-2.6268115E-2,2.6635487E-2,-2.6810149E-2,-9.111105E-3,-3.820235E-2,4.9327057E-2,1.622832E-3,-1.7072624E-2,2.2463692E-2,-2.2091454E-2,2.760586E-2,5.9116047E-2,3.8942736E-2,4.252818E-2,-8.319474E-3,4.461579E-2,1.8073704E-2,1.6121006E-2,-4.522356E-2,1.8917717E-2,-3.117092E-2,-5.1694375E-2,-6.3009458E-3,4.484537E-2,6.045461E-3,-7.0346766E-3,4.027189E-2,1.9275272E-2,4.5561744E-3,-3.051868E-3,2.9371122E-2,1.569658E-2,5.697347E-2,-7.6650865E-3,-8.355547E-2],"split_indices":[26,30,6,6,71,1,1,22,1,13,4,7,6,6,7,48,9,42,2,62,23,27,1,7,50,71,2,27,0,6,2,59,26,1,7,22,0,6,55,2,27,9,12,24,11,50,16,1,0,6,11,11,12,22,9,16,38,1,5,0,15,0,0,0,0,0,0,0,0,0,0,0,0,0,0,0,0,0,0,0,0,0,0,0,0,0,0,0,0,0,0,0,0,0,0,0,0,0,0,0,0,0,0,0,0,0,0,0,0,0,0,0,0,0,0,0,0],"split_type":[0,0,0,0,0,0,0,0,0,0,0,0,0,0,0,0,0,0,0,0,0,0,0,0,0,0,0,0,0,0,0,0,0,0,0,0,0,0,0,0,0,0,0,0,0,0,0,0,0,0,0,0,0,0,0,0,0,0,0,0,0,0,0,0,0,0,0,0,0,0,0,0,0,0,0,0,0,0,0,0,0,0,0,0,0,0,0,0,0,0,0,0,0,0,0,0,0,0,0,0,0,0,0,0,0,0,0,0,0,0,0,0,0,0,0,0,0],"sum_hessian":[1.1513617E4,4.5618813E3,6.951736E3,3.6048591E3,9.570219E2,9.589736E2,5.992762E3,7.273972E2,2.877462E3,3.96713E2,5.603089E2,3.3233426E2,6.266393E2,1.8784088E2,5.8049214E3,4.7632294E2,2.5107428E2,3.693516E1,2.8405269E3,3.024567E2,9.4256325E1,4.4334943E2,1.1695947E2,4.58711E1,2.8646317E2,4.276622E2,1.9897713E2,1.7930986E2,8.531011E0,4.837701E3,9.6722015E2,2.8470032E2,1.9162262E2,1.3133682E2,1.1973745E2,3.1150589E1,5.78457E0,5.857857E2,2.2547412E3,2.3933044E2,6.3126244E1,6.687928E1,2.7377045E1,5.9377613E1,3.839718E2,4.9691643E1,6.726783E1,3.9002792E1,6.8683085E0,2.114278E2,7.5035355E1,1.5992044E2,2.6774173E2,1.110772E2,8.789992E1,1.5210272E2,2.7207142E1,2.6043628E3,2.2333386E3,8.890996E2,7.812056E1,1.26862114E2,1.5783821E2,5.564759E0,1.8605786E2,8.554613E0,1.2278221E2,2.8800861E1,9.093659E1,1.5815324E1,1.5335266E1,5.558645E2,2.992124E1,9.0833966E2,1.3464014E3,2.1285434E2,2.6476107E1,4.606022E1,1.7066023E1,2.6312197E1,4.0567085E1,2.0453941E1,6.923104E0,4.7090893E1,1.2286723E1,3.38144E2,4.582778E1,3.5757504E1,1.3934141E1,3.8571613E1,2.8696215E1,1.2026428E1,2.6976362E1,7.444644E1,1.3698135E2,4.1873466E1,3.316189E1,8.9515884E1,7.0404564E1,2.6119565E2,6.5460815E0,1.0121696E2,9.86024E0,2.6417645E1,6.1482277E1,1.404663E2,1.1636435E1,1.8902533E1,8.304609E0,6.29246E2,1.9751168E3,2.1825747E3,5.0763947E1,8.5344495E2,3.5654655E1,7.140387E1,6.71669E0],"tree_param":{"num_deleted":"0","num_feature":"72","num_nodes":"117","size_leaf_vector":"1"}},{"base_weights":[-2.3784358E-3,-2.2332795E-1,1.4645708E-1,-3.024461E-1,7.021183E-2,2.2480218E-1,3.452795E-2,-6.4569437E-3,-3.7199846E-1,2.0808937E-1,-1.7250593E-1,5.133462E-1,1.8140419E-1,-5.0089832E-2,1.679762E-1,1.8105972E-1,-2.1313322E-1,-4.2698216E-1,3.4325134E-2,1.5190655E-1,7.275525E-1,-2.8090322E-1,2.4174827E-1,7.451547E-1,2.4076946E-1,3.6841574E-1,1.2234808E-1,-7.9982996E-2,4.3522623E-1,2.9073387E-1,-1.435069E-1,-4.1626018E-2,4.047328E-1,-2.7407944E-1,5.743948E-1,-5.0165594E-1,-2.697506E-1,3.5019854E-1,-2.2409807E-1,6.9731754E-1,9.9965096E-2,2.2429949E-1,8.367225E-1,-8.668209E-1,-1.8828093E-1,6.016007E-1,-1.4766958E-1,9.7266126E-1,5.927828E-1,1.5698494E-1,1.1978005E0,4.2122275E-1,-1.4706591E-1,1.00903094E-1,6.1609197E-1,-1.7343505E-1,9.810025E-2,5.295901E-1,-5.0705384E-2,3.3532405E-1,-3.7069556E-1,1.8439859E-1,-3.567692E-1,4.0742144E-2,-7.485906E-3,6.744713E-2,1.5786119E-2,-3.7906602E-2,-8.186331E-3,6.2058713E-2,-6.4702095E-3,-1.4181407E-2,-2.7954122E-2,-1.8117275E-2,1.7252017E-3,5.71436E-3,4.0510137E-2,-7.832073E-3,-8.0488056E-2,4.5589738E-2,4.0249433E-3,-1.2156591E-2,1.1711295E-2,-3.3170324E-2,5.018106E-2,3.5451915E-2,7.0983514E-2,-2.8424677E-3,-5.621047E-2,1.2123027E-2,-1.6032357E-2,1.004457E-2,5.6344207E-2,1.0622341E-2,-4.6501882E-2,4.6102554E-2,7.241645E-2,2.3296738E-2,5.2061122E-2,1.5644455E-2,-8.59525E-3,2.8179068E-2,7.6173596E-2,2.6522366E-2,1.1269882E-2,2.0517303E-2,-2.4559071E-2,1.4257616E-2,2.536769E-3,-2.053981E-2,3.3617567E-2,6.9882832E-3,-1.101634E-2,1.240947E-2,-2.715656E-3,4.797319E-3,4.561507E-2,1.8807149E-2,-1.18892575E-2,-6.8987967E-3,-7.370525E-2,2.016003E-2,-2.8042717E-2,-2.201396E-2,2.9714301E-2],"categories":[],"categories_nodes":[],"categories_segments":[],"categories_sizes":[],"default_left":[0,0,0,0,0,0,0,0,0,0,0,0,0,0,0,0,0,0,0,0,0,0,0,0,0,0,0,0,0,0,0,0,0,0,0,0,0,0,0,0,0,0,0,0,0,0,0,0,0,0,0,0,0,0,0,0,0,0,0,0,0,0,0,0,0,0,0,0,0,0,0,0,0,0,0,0,0,0,0,0,0,0,0,0,0,0,0,0,0,0,0,0,0,0,0,0,0,0,0,0,0,0,0,0,0,0,0,0,0,0,0,0,0,0,0,0,0,0,0,0,0,0,0,0,0],"id":13,"left_children":[1,3,5,7,9,11,13,15,17,19,21,23,25,27,29,31,33,35,37,39,41,43,45,47,49,51,53,55,57,59,61,63,65,67,69,71,73,75,77,79,81,83,85,87,89,91,93,95,97,99,101,103,105,107,109,111,113,115,-1,117,119,121,123,-1,-1,-1,-1,-1,-1,-1,-1,-1,-1,-1,-1,-1,-1,-1,-1,-1,-1,-1,-1,-1,-1,-1,-1,-1,-1,-1,-1,-1,-1,-1,-1,-1,-1,-1,-1,-1,-1,-1,-1,-1,-1,-1,-1,-1,-1,-1,-1,-1,-1,-1,-1,-1,-1,-1,-1,-1,-1,-1,-1,-1,-1],"loss_changes":[3.760456E2,1.0691214E2,5.9907883E1,7.463638E1,3.276387E1,5.023497E1,3.1789885E1,2.6813173E1,6.56019E1,1.810476E1,1.6001337E1,3.298729E1,3.855641E1,2.5033371E1,4.181009E1,1.8085588E1,1.5953263E1,3.0225647E1,2.8716892E1,1.5921767E1,3.144516E0,1.5124571E1,1.0476808E1,9.240402E0,1.9274197E1,2.2882614E1,2.8079964E1,2.7043987E1,1.4231827E1,2.3243568E1,2.170721E1,1.7034887E1,1.4792305E1,1.622877E1,1.1405707E1,2.1778198E1,2.3531342E1,1.7081833E1,1.7841805E1,6.397869E0,2.3852303E1,9.090587E0,2.6758614E0,7.894865E0,1.4019647E1,7.9245386E0,1.0454476E1,1.3615189E0,9.308044E0,1.1556413E1,3.1458778E0,1.6151077E1,1.5286344E1,2.3541367E1,6.6564445E0,1.5678432E1,1.2813669E1,1.5623884E1,0E0,1.7281487E1,1.2631433E1,2.0220217E1,1.5181778E1,0E0,0E0,0E0,0E0,0E0,0E0,0E0,0E0,0E0,0E0,0E0,0E0,0E0,0E0,0E0,0E0,0E0,0E0,0E0,0E0,0E0,0E0,0E0,0E0,0E0,0E0,0E0,0E0,0E0,0E0,0E0,0E0,0E0,0E0,0E0,0E0,0E0,0E0,0E0,0E0,0E0,0E0,0E0,0E0,0E0,0E0,0E0,0E0,0E0,0E0,0E0,0E0,0E0,0E0,0E0,0E0,0E0,0E0,0E0,0E0,0E0,0E0],"parents":[2147483647,0,0,1,1,2,2,3,3,4,4,5,5,6,6,7,7,8,8,9,9,10,10,11,11,12,12,13,13,14,14,15,15,16,16,17,17,18,18,19,19,20,20,21,21,22,22,23,23,24,24,25,25,26,26,27,27,28,28,29,29,30,30,31,31,32,32,33,33,34,34,35,35,36,36,37,37,38,38,39,39,40,40,41,41,42,42,43,43,44,44,45,45,46,46,47,47,48,48,49,49,50,50,51,51,52,52,53,53,54,54,55,55,56,56,57,57,59,59,60,60,61,61,62,62],"right_children":[2,4,6,8,10,12,14,16,18,20,22,24,26,28,30,32,34,36,38,40,42,44,46,48,50,52,54,56,58,60,62,64,66,68,70,72,74,76,78,80,82,84,86,88,90,92,94,96,98,100,102,104,106,108,110,112,114,116,-1,118,120,122,124,-1,-1,-1,-1,-1,-1,-1,-1,-1,-1,-1,-1,-1,-1,-1,-1,-1,-1,-1,-1,-1,-1,-1,-1,-1,-1,-1,-1,-1,-1,-1,-1,-1,-1,-1,-1,-1,-1,-1,-1,-1,-1,-1,-1,-1,-1,-1,-1,-1,-1,-1,-1,-1,-1,-1,-1,-1,-1,-1,-1,-1,-1],"split_conditions":[3.06E2,1E0,1E0,-1.67E2,4E0,1E0,6.3E0,4E0,3E0,1E0,6E0,8.3E1,3.73E2,1.01E3,4E0,3E0,1E0,8E1,5E0,8.3E0,5.8E1,4E1,2.5E-1,4.05E2,1E0,9E0,1E0,1E0,6.23E1,3E0,1E0,3.2E2,-9.31E2,3.5E1,3.3E0,3.5E1,2.04E2,1E2,1.3E0,2.8E2,1E0,3E-1,1.9E2,3.92E2,3E-1,8.7E1,2.7E0,3E-1,1E0,3.89E2,4E0,1E0,6.7E0,-1.46E2,1.1E1,3.39E2,3.03E1,8.3E1,-5.0705384E-2,2.87E1,1E0,6.1E1,7.54E2,4.0742144E-2,-7.485906E-3,6.744713E-2,1.5786119E-2,-3.7906602E-2,-8.186331E-3,6.2058713E-2,-6.4702095E-3,-1.4181407E-2,-2.7954122E-2,-1.8117275E-2,1.7252017E-3,5.71436E-3,4.0510137E-2,-7.832073E-3,-8.0488056E-2,4.5589738E-2,4.0249433E-3,-1.2156591E-2,1.1711295E-2,-3.3170324E-2,5.018106E-2,3.5451915E-2,7.0983514E-2,-2.8424677E-3,-5.621047E-2,1.2123027E-2,-1.6032357E-2,1.004457E-2,5.6344207E-2,1.0622341E-2,-4.6501882E-2,4.6102554E-2,7.241645E-2,2.3296738E-2,5.2061122E-2,1.5644455E-2,-8.59525E-3,2.8179068E-2,7.6173596E-2,2.6522366E-2,1.1269882E-2,2.0517303E-2,-2.4559071E-2,1.4257616E-2,2.536769E-3,-2.053981E-2,3.3617567E-2,6.9882832E-3,-1.101634E-2,1.240947E-2,-2.715656E-3,4.797319E-3,4.561507E-2,1.8807149E-2,-1.18892575E-2,-6.8987967E-3,-7.370525E-2,2.016003E-2,-2.8042717E-2,-2.201396E-2,2.9714301E-2],"split_indices":[26,30,6,6,50,16,18,50,22,40,50,1,26,26,50,9,44,48,45,16,26,26,3,26,58,45,40,53,13,25,45,1,6,2,20,2,26,48,12,1,9,12,17,1,11,16,20,14,43,26,50,11,14,6,2,26,16,1,0,15,47,2,26,0,0,0,0,0,0,0,0,0,0,0,0,0,0,0,0,0,0,0,0,0,0,0,0,0,0,0,0,0,0,0,0,0,0,0,0,0,0,0,0,0,0,0,0,0,0,0,0,0,0,0,0,0,0,0,0,0,0,0,0,0,0],"split_type":[0,0,0,0,0,0,0,0,0,0,0,0,0,0,0,0,0,0,0,0,0,0,0,0,0,0,0,0,0,0,0,0,0,0,0,0,0,0,0,0,0,0,0,0,0,0,0,0,0,0,0,0,0,0,0,0,0,0,0,0,0,0,0,0,0,0,0,0,0,0,0,0,0,0,0,0,0,0,0,0,0,0,0,0,0,0,0,0,0,0,0,0,0,0,0,0,0,0,0,0,0,0,0,0,0,0,0,0,0,0,0,0,0,0,0,0,0,0,0,0,0,0,0,0,0],"sum_hessian":[1.143313E4,4.6015415E3,6.831588E3,3.624575E3,9.769667E2,4.0180996E3,